{"ip":0,"fr":60,"v":"5.1.20","assets":[],"layers":[{"ty":4,"nm":"Flying coin04","ip":0,"st":0,"ind":6,"hix":3,"ks":{"o":{"a":1,"k":[{"t":0,"s":[0],"e":[0],"i":{"x":[1],"y":[1]},"o":{"x":[0],"y":[0]}},{"t":79,"s":[0],"e":[100],"i":{"x":[0.515],"y":[0.955]},"o":{"x":[0.455],"y":[0.03]}},{"t":125,"s":[100],"e":[0],"i":{"x":[0.515],"y":[0.955]},"o":{"x":[0.455],"y":[0.03]}},{"t":175}]},"or":{"a":0,"k":[0,0,0]},"a":{"a":0,"k":[21.5,24,0]},"p":{"s":true,"x":{"a":1,"k":[{"t":0,"s":[101.5],"e":[101.5],"i":{"x":[1],"y":[1]},"o":{"x":[0],"y":[0]}},{"t":79,"s":[101.5],"e":[282],"i":{"x":[0.67],"y":[0.995]},"o":{"x":[0.31],"y":[0.005]}},{"t":175}]},"y":{"a":1,"k":[{"t":0,"s":[120],"e":[120],"i":{"x":[1],"y":[1]},"o":{"x":[0],"y":[0]}},{"t":79,"s":[120],"e":[85],"i":{"x":[0.47],"y":[0.985]},"o":{"x":[0.2],"y":[0]}},{"t":125,"s":[85],"e":[120],"i":{"x":[0.795],"y":[0.995]},"o":{"x":[0.48],"y":[0.015]}},{"t":175}]}},"rx":{"a":0,"k":0},"ry":{"a":0,"k":0},"rz":{"a":0,"k":0},"s":{"a":0,"k":[74.3,74.3]}},"shapes":[{"ty":"gr","nm":"Flying coin04 shape group","it":[{"ty":"sh","ks":{"a":0,"k":{"c":true,"v":[[21.292,3.054],[40.945,30.718],[20.064,45.997],[20.095,44.91],[20.752,44.437],[20.834,41.586999999999996],[20.215,40.724],[20.243,39.733999999999995],[21.095,39.967999999999996],[20.941,45.349],[40.102000000000004,30.461999999999996],[22.117,4.224],[21.963,9.597000000000001],[21.113,9.31],[21.141,8.328000000000001],[21.799,7.847000000000001],[21.88,5.005000000000001],[21.261,4.133000000000001]],"i":[[0,0],[0.3369999999999962,-11.781000000000002],[11.117,3.399000000000001],[0,0],[-0.010000000000001563,0.36999999999999744],[0,0],[0.3569999999999993,0.10900000000000176],[0,0],[-0.28200000000000003,-0.06900000000000261],[0,0],[-0.3160000000000025,11.048000000000002],[10.298999999999996,3.628],[0,0],[0.28500000000000014,0.08800000000000097],[0,0],[-0.011000000000002785,0.3699999999999992],[0,0],[0.3569999999999993,0.10999999999999943]],"o":[[11.118000000000002,3.3989999999999996],[-0.3370000000000033,11.779999999999998],[0,0],[0.3569999999999993,0.10900000000000176],[0,0],[0.010999999999999233,-0.36999999999999744],[0,0],[0.28600000000000136,0.0870000000000033],[0,0],[10.326,2.6779999999999973],[0.3160000000000025,-11.048000000000002],[0,0],[-0.2809999999999988,-0.1039999999999992],[0,0],[0.3569999999999993,0.10899999999999999],[0,0],[0.010999999999999233,-0.3700000000000001],[0,0]]}}},{"ty":"st","o":{"a":0,"k":0},"w":{"a":0,"k":0},"c":{"a":0,"k":[0,0,0,0]},"lc":3,"lj":1,"ml":1},{"ty":"fl","o":{"a":0,"k":100},"r":1,"c":{"a":0,"k":[0.9921568627450981,0.9725490196078431,0.7568627450980392,1]}},{"ty":"tr","o":{"a":0,"k":100},"a":{"a":0,"k":[0,0]},"s":{"a":0,"k":[100,100]},"p":{"a":0,"k":[0,0]},"r":{"a":0,"k":0}}]},{"ty":"gr","nm":"Flying coin04 shape group","it":[{"ty":"sh","ks":{"a":0,"k":{"c":true,"v":[[40.396,17.14],[38.255,18.598],[35.035000000000004,13.219999999999999],[36.246,12.395],[37.176,11.762]],"i":[[-0.8879999999999981,-1.8870000000000005],[0.7139999999999986,-0.4859999999999971],[1.2469999999999999,1.6829999999999998],[-0.40399999999999636,0.2749999999999986],[-0.3100000000000023,0.21099999999999852]],"o":[[-0.7139999999999986,0.48600000000000065],[-0.8879999999999981,-1.8870000000000005],[0.40400000000000347,-0.27500000000000036],[0.3100000000000023,-0.2110000000000003],[1.2469999999999999,1.6829999999999998]]}}},{"ty":"st","o":{"a":0,"k":0},"w":{"a":0,"k":0},"c":{"a":0,"k":[0,0,0,0]},"lc":3,"lj":1,"ml":1},{"ty":"fl","o":{"a":0,"k":100},"r":1,"c":{"a":0,"k":[0.9294117647058824,0.8627450980392157,0.23137254901960785,1]}},{"ty":"tr","o":{"a":0,"k":100},"a":{"a":0,"k":[0,0]},"s":{"a":0,"k":[100,100]},"p":{"a":0,"k":[0,0]},"r":{"a":0,"k":0}}]},{"ty":"gr","nm":"Flying coin04 shape group","it":[{"ty":"sh","ks":{"a":0,"k":{"c":true,"v":[[31.092,5.582],[37.176,11.763],[36.524,12.206],[35.035000000000004,13.219999999999999],[28.952000000000005,7.039999999999999],[29.202000000000005,6.869999999999999],[29.467000000000006,6.688999999999999],[29.742000000000004,6.501999999999999],[30.022000000000006,6.310999999999999]],"i":[[-0.3559999999999981,0.24300000000000033],[-1.7420000000000044,-2.351000000000001],[0.21699999999999875,-0.14700000000000024],[0.4959999999999951,-0.3379999999999992],[2.2819999999999965,1.725999999999999],[-0.07499999999999929,0.051000000000000156],[-0.07900000000000063,0.054999999999999716],[-0.08199999999999719,0.05600000000000005],[-0.08399999999999963,0.056999999999999496]],"o":[[2.2819999999999965,1.726],[-0.21699999999999875,0.1479999999999997],[-0.4960000000000022,0.3379999999999992],[-1.7419999999999973,-2.3499999999999996],[0.07499999999999929,-0.051000000000000156],[0.0799999999999983,-0.05400000000000027],[0.08299999999999841,-0.05600000000000005],[0.08399999999999963,-0.057000000000000384],[0.35699999999999577,-0.24299999999999944]]}}},{"ty":"st","o":{"a":0,"k":0},"w":{"a":0,"k":0},"c":{"a":0,"k":[0,0,0,0]},"lc":3,"lj":1,"ml":1},{"ty":"fl","o":{"a":0,"k":100},"r":1,"c":{"a":0,"k":[0.9294117647058824,0.8627450980392157,0.23137254901960785,1]}},{"ty":"tr","o":{"a":0,"k":100},"a":{"a":0,"k":[0,0]},"s":{"a":0,"k":[100,100]},"p":{"a":0,"k":[0,0]},"r":{"a":0,"k":0}}]},{"ty":"gr","nm":"Flying coin04 shape group","it":[{"ty":"sh","ks":{"a":0,"k":{"c":true,"v":[[40.396,17.14],[40.398,17.145],[38.257000000000005,18.602999999999998],[38.255,18.598]],"i":[[-0.7139999999999986,0.48600000000000065],[0,-0.0019999999999988916],[0.7139999999999986,-0.4859999999999971],[0,0.0019999999999988916]],"o":[[0.0009999999999976694,0.0019999999999988916],[-0.7139999999999986,0.48600000000000065],[-0.0009999999999976694,-0.0019999999999988916],[0.7139999999999986,-0.48600000000000065]]}}},{"ty":"st","o":{"a":0,"k":0},"w":{"a":0,"k":0},"c":{"a":0,"k":[0,0,0,0]},"lc":3,"lj":1,"ml":1},{"ty":"fl","o":{"a":0,"k":100},"r":1,"c":{"a":0,"k":[0.9921568627450981,0.9725490196078431,0.7568627450980392,1]}},{"ty":"tr","o":{"a":0,"k":100},"a":{"a":0,"k":[0,0]},"s":{"a":0,"k":[100,100]},"p":{"a":0,"k":[0,0]},"r":{"a":0,"k":0}}]},{"ty":"gr","nm":"Flying coin04 shape group","it":[{"ty":"sh","ks":{"a":0,"k":{"c":true,"v":[[40.876,18.213],[38.735,19.671],[38.257,18.602999999999998],[38.507,18.432999999999996],[38.638,18.343999999999998],[38.909,18.159999999999997],[39.187,17.969999999999995],[39.467999999999996,17.778999999999996],[39.608,17.683999999999997],[39.882999999999996,17.496999999999996],[40.147999999999996,17.315999999999995],[40.275,17.228999999999996],[40.397999999999996,17.144999999999996]],"i":[[-0.15200000000000102,-0.35800000000000054],[0.7139999999999986,-0.4859999999999971],[0.16600000000000392,0.35300000000000153],[-0.07500000000000284,0.05100000000000193],[-0.03900000000000148,0.02699999999999747],[-0.08200000000000074,0.054999999999999716],[-0.08299999999999841,0.05700000000000216],[-0.08399999999999608,0.05699999999999861],[-0.04200000000000159,0.027999999999998693],[-0.08200000000000074,0.05600000000000094],[-0.07900000000000063,0.054999999999999716],[-0.03800000000000381,0.0259999999999998],[-0.04399999999999693,-0.0070000000000014495]],"o":[[-0.7139999999999986,0.48600000000000065],[-0.15200000000000102,-0.35900000000000176],[0.07500000000000284,-0.05099999999999838],[0.03900000000000148,-0.027000000000001023],[0.08100000000000307,-0.054999999999999716],[0.08299999999999841,-0.05699999999999861],[0.08400000000000318,-0.05699999999999861],[0.04200000000000159,-0.028999999999999915],[0.08299999999999841,-0.05600000000000094],[0.0799999999999983,-0.053999999999998494],[0.0379999999999967,-0.0259999999999998],[0.036999999999999034,-0.02499999999999858],[0.1670000000000016,0.3530000000000051]]}}},{"ty":"st","o":{"a":0,"k":0},"w":{"a":0,"k":0},"c":{"a":0,"k":[0,0,0,0]},"lc":3,"lj":1,"ml":1},{"ty":"fl","o":{"a":0,"k":100},"r":1,"c":{"a":0,"k":[0.9294117647058824,0.8627450980392157,0.23137254901960785,1]}},{"ty":"tr","o":{"a":0,"k":100},"a":{"a":0,"k":[0,0]},"s":{"a":0,"k":[100,100]},"p":{"a":0,"k":[0,0]},"r":{"a":0,"k":0}}]},{"ty":"gr","nm":"Flying coin04 shape group","it":[{"ty":"sh","ks":{"a":0,"k":{"c":true,"v":[[40.876,18.213],[41.111,18.783],[38.97,20.241],[38.735,19.671],[40.085,18.752],[40.177,18.689],[40.275,18.622],[40.376999999999995,18.553],[40.48,18.483],[40.583,18.412],[40.684999999999995,18.343],[40.782999999999994,18.276]],"i":[[-0.027000000000001023,0.01899999999999835],[-0.07600000000000051,-0.19099999999999895],[0.7139999999999986,-0.4859999999999971],[0.0799999999999983,0.18900000000000006],[-0.45000000000000284,0.30600000000000094],[-0.027000000000001023,0.01899999999999835],[-0.028999999999996362,0.019999999999999574],[-0.030999999999998806,0.021000000000000796],[-0.030999999999998806,0.021000000000000796],[-0.030999999999998806,0.022000000000002018],[-0.030999999999998806,0.021000000000000796],[-0.028999999999996362,0.019999999999999574]],"o":[[0.0799999999999983,0.18900000000000006],[-0.7139999999999986,0.48600000000000065],[-0.07600000000000051,-0.19099999999999895],[0.45000000000000284,-0.30600000000000094],[0.027999999999998693,-0.01899999999999835],[0.029000000000003467,-0.019999999999999574],[0.030000000000001137,-0.021000000000000796],[0.030999999999998806,-0.021000000000000796],[0.030999999999998806,-0.021000000000000796],[0.030000000000001137,-0.021000000000000796],[0.029000000000003467,-0.019999999999999574],[0.029000000000003467,-0.01899999999999835]]}}},{"ty":"st","o":{"a":0,"k":0},"w":{"a":0,"k":0},"c":{"a":0,"k":[0,0,0,0]},"lc":3,"lj":1,"ml":1},{"ty":"fl","o":{"a":0,"k":100},"r":1,"c":{"a":0,"k":[0.9294117647058824,0.8627450980392157,0.23137254901960785,1]}},{"ty":"tr","o":{"a":0,"k":100},"a":{"a":0,"k":[0,0]},"s":{"a":0,"k":[100,100]},"p":{"a":0,"k":[0,0]},"r":{"a":0,"k":0}}]},{"ty":"gr","nm":"Flying coin04 shape group","it":[{"ty":"sh","ks":{"a":0,"k":{"c":true,"v":[[41.112,18.783],[42.120000000000005,21.748],[39.979000000000006,23.205000000000002],[38.971000000000004,20.241000000000003],[39.221000000000004,20.071],[39.486000000000004,19.89],[39.761,19.703],[40.041000000000004,19.512],[40.321000000000005,19.321],[40.596000000000004,19.134],[40.861000000000004,18.953]],"i":[[-0.07600000000000051,0.05099999999999838],[-0.28000000000000114,-1.0010000000000012],[1.2119999999999962,-0.8300000000000018],[0.39000000000000057,0.9740000000000002],[-0.07500000000000284,0.05100000000000193],[-0.07900000000000063,0.054999999999999716],[-0.08200000000000074,0.05600000000000094],[-0.08400000000000318,0.05699999999999861],[-0.08400000000000318,0.05699999999999861],[-0.08200000000000074,0.05600000000000094],[-0.07900000000000063,0.054999999999999716]],"o":[[0.39000000000000057,0.9740000000000002],[-0.5889999999999986,0.3949999999999996],[-0.28000000000000114,-1],[0.07500000000000284,-0.05099999999999838],[0.0799999999999983,-0.053999999999998494],[0.08299999999999841,-0.05600000000000094],[0.08400000000000318,-0.05699999999999861],[0.08400000000000318,-0.05699999999999861],[0.08299999999999841,-0.05600000000000094],[0.0799999999999983,-0.053999999999998494],[0.07499999999999574,-0.05099999999999838]]}}},{"ty":"st","o":{"a":0,"k":0},"w":{"a":0,"k":0},"c":{"a":0,"k":[0,0,0,0]},"lc":3,"lj":1,"ml":1},{"ty":"fl","o":{"a":0,"k":100},"r":1,"c":{"a":0,"k":[0.9294117647058824,0.8627450980392157,0.23137254901960785,1]}},{"ty":"tr","o":{"a":0,"k":100},"a":{"a":0,"k":[0,0]},"s":{"a":0,"k":[100,100]},"p":{"a":0,"k":[0,0]},"r":{"a":0,"k":0}}]},{"ty":"gr","nm":"Flying coin04 shape group","it":[{"ty":"sh","ks":{"a":0,"k":{"c":true,"v":[[36,11.436],[36.147,11.622],[34.006,13.079],[33.86,12.893],[33.948,12.833],[34.042,12.769],[34.139,12.703],[34.238,12.636],[34.434,12.503],[34.528,12.439],[34.616,12.379],[34.778,12.269],[34.949999999999996,12.152],[35.12799999999999,12.030999999999999],[35.30899999999999,11.908],[35.48999999999999,11.785],[35.667999999999985,11.664],[35.83999999999998,11.546999999999999]],"i":[[-0.04800000000000182,0.032999999999999474],[-0.04899999999999949,-0.06199999999999939],[0.713000000000001,-0.48600000000000065],[0.04899999999999949,0.06199999999999939],[-0.026000000000003354,0.018000000000000682],[-0.029000000000003467,0.019000000000000128],[-0.029000000000003467,0.02000000000000135],[-0.02999999999999403,0.019999999999999574],[-0.06499999999999773,0.04399999999999871],[-0.029000000000003467,0.019000000000000128],[-0.026000000000003354,0.018000000000000682],[-0.04899999999999949,0.032999999999999474],[-0.0519999999999996,0.03500000000000014],[-0.05299999999999727,0.03599999999999959],[-0.05399999999999494,0.036999999999999034],[-0.05399999999999494,0.036999999999999034],[-0.05299999999999727,0.03599999999999959],[-0.0519999999999996,0.03500000000000014]],"o":[[0.04899999999999949,0.06199999999999939],[-0.7139999999999986,0.48499999999999943],[-0.04800000000000182,-0.06199999999999939],[0.026000000000003354,-0.018000000000000682],[0.027999999999998693,-0.019000000000000128],[0.029000000000003467,-0.019999999999999574],[0.030000000000001137,-0.019999999999999574],[0.06499999999999773,-0.04400000000000048],[0.027999999999998693,-0.019000000000000128],[0.026000000000003354,-0.018000000000000682],[0.04899999999999949,-0.032999999999999474],[0.05100000000000193,-0.03500000000000014],[0.05299999999999727,-0.03599999999999959],[0.054000000000002046,-0.03700000000000081],[0.05399999999999494,-0.036999999999999034],[0.05299999999999727,-0.03599999999999959],[0.05100000000000193,-0.03500000000000014],[0.04700000000001836,-0.03399999999999892]]}}},{"ty":"st","o":{"a":0,"k":0},"w":{"a":0,"k":0},"c":{"a":0,"k":[0,0,0,0]},"lc":3,"lj":1,"ml":1},{"ty":"fl","o":{"a":0,"k":100},"r":1,"c":{"a":0,"k":[0.996078431372549,0.9568627450980393,0.5529411764705883,1]}},{"ty":"tr","o":{"a":0,"k":100},"a":{"a":0,"k":[0,0]},"s":{"a":0,"k":[100,100]},"p":{"a":0,"k":[0,0]},"r":{"a":0,"k":0}}]},{"ty":"gr","nm":"Flying coin04 shape group","it":[{"ty":"sh","ks":{"a":0,"k":{"c":true,"v":[[36,11.436],[33.859,12.894],[30.807000000000002,9.59],[32.948,8.132]],"i":[[-0.9359999999999999,-1.1809999999999992],[0.7139999999999986,-0.48600000000000065],[1.0940000000000012,1.0150000000000006],[-0.7139999999999986,0.48600000000000065]],"o":[[-0.7139999999999986,0.48600000000000065],[-0.9359999999999999,-1.1809999999999992],[0.7139999999999986,-0.48600000000000065],[1.0940000000000012,1.016]]}}},{"ty":"st","o":{"a":0,"k":0},"w":{"a":0,"k":0},"c":{"a":0,"k":[0,0,0,0]},"lc":3,"lj":1,"ml":1},{"ty":"fl","o":{"a":0,"k":100},"r":1,"c":{"a":0,"k":[0.996078431372549,0.9568627450980393,0.5529411764705883,1]}},{"ty":"tr","o":{"a":0,"k":100},"a":{"a":0,"k":[0,0]},"s":{"a":0,"k":[100,100]},"p":{"a":0,"k":[0,0]},"r":{"a":0,"k":0}}]},{"ty":"gr","nm":"Flying coin04 shape group","it":[{"ty":"sh","ks":{"a":0,"k":{"c":true,"v":[[37.099,18.923],[37.635,19.423],[37.381,20.270999999999997],[35.007,20.982999999999997],[34.693999999999996,20.977999999999998],[34.154999999999994,20.479],[34.40899999999999,19.631],[36.77499999999999,18.917]],"i":[[-0.10899999999999466,-0.03399999999999892],[-0.10999999999999943,-0.2510000000000012],[0.3089999999999975,-0.09199999999999875],[0,0],[0.10600000000000165,0.03200000000000003],[0.11200000000000188,0.2469999999999999],[-0.3089999999999975,0.09199999999999875],[0,0]],"o":[[0.21800000000000352,0.06700000000000017],[0.16599999999999682,0.3760000000000012],[0,0],[-0.09899999999999665,0.030999999999998806],[-0.21699999999999875,-0.06599999999999895],[-0.16599999999999682,-0.3760000000000012],[0,0],[0.10400000000000631,-0.03200000000000003]]}}},{"ty":"st","o":{"a":0,"k":0},"w":{"a":0,"k":0},"c":{"a":0,"k":[0,0,0,0]},"lc":3,"lj":1,"ml":1},{"ty":"fl","o":{"a":0,"k":100},"r":1,"c":{"a":0,"k":[0.9254901960784314,0.8666666666666667,0.2901960784313726,1]}},{"ty":"tr","o":{"a":0,"k":100},"a":{"a":0,"k":[0,0]},"s":{"a":0,"k":[100,100]},"p":{"a":0,"k":[0,0]},"r":{"a":0,"k":0}}]},{"ty":"gr","nm":"Flying coin04 shape group","it":[{"ty":"sh","ks":{"a":0,"k":{"c":true,"v":[[30.784,6.318],[32.946999999999996,8.133],[31.876999999999995,8.861999999999998],[31.321999999999996,9.239999999999998],[30.806999999999995,9.590999999999998],[28.643999999999995,7.775999999999998],[28.893999999999995,7.605999999999998],[29.158999999999995,7.424999999999998],[29.433999999999994,7.237999999999998],[29.713999999999995,7.046999999999998],[29.993999999999996,6.855999999999998],[30.268999999999995,6.668999999999998],[30.533999999999995,6.487999999999998]],"i":[[-0.07499999999999929,0.051000000000000156],[-0.6929999999999978,-0.6439999999999992],[0.35600000000000165,-0.24299999999999855],[0.18499999999999872,-0.12599999999999945],[0.1720000000000006,-0.1169999999999991],[0.7469999999999999,0.5649999999999995],[-0.07499999999999929,0.051000000000000156],[-0.07900000000000063,0.054999999999999716],[-0.08199999999999719,0.05600000000000005],[-0.08399999999999963,0.056999999999999496],[-0.08399999999999963,0.056999999999999496],[-0.08199999999999719,0.05600000000000005],[-0.07900000000000063,0.054999999999999716]],"o":[[0.7480000000000011,0.5640000000000001],[-0.3569999999999993,0.24300000000000033],[-0.18499999999999872,0.12599999999999945],[-0.1720000000000006,0.11700000000000088],[-0.6930000000000014,-0.6440000000000001],[0.07499999999999929,-0.051000000000000156],[0.0799999999999983,-0.05400000000000027],[0.08299999999999841,-0.05600000000000005],[0.08399999999999963,-0.057000000000000384],[0.08399999999999963,-0.057000000000000384],[0.08299999999999841,-0.05600000000000005],[0.0799999999999983,-0.05400000000000027],[0.0750000000000064,-0.05099999999999749]]}}},{"ty":"st","o":{"a":0,"k":0},"w":{"a":0,"k":0},"c":{"a":0,"k":[0,0,0,0]},"lc":3,"lj":1,"ml":1},{"ty":"fl","o":{"a":0,"k":100},"r":1,"c":{"a":0,"k":[0.996078431372549,0.9568627450980393,0.5529411764705883,1]}},{"ty":"tr","o":{"a":0,"k":100},"a":{"a":0,"k":[0,0]},"s":{"a":0,"k":[100,100]},"p":{"a":0,"k":[0,0]},"r":{"a":0,"k":0}}]},{"ty":"gr","nm":"Flying coin04 shape group","it":[{"ty":"sh","ks":{"a":0,"k":{"c":true,"v":[[42.821,24.999],[40.68,26.456999999999997],[39.979,23.205],[42.12,21.747999999999998]],"i":[[-0.16400000000000148,-1.0899999999999999],[0.7139999999999986,-0.4859999999999971],[0.3019999999999996,1.0749999999999993],[-0.5889999999999986,0.3949999999999996]],"o":[[-0.7139999999999986,0.48600000000000065],[-0.16400000000000148,-1.0899999999999999],[1.2109999999999985,-0.8309999999999995],[0.30100000000000193,1.0740000000000016]]}}},{"ty":"st","o":{"a":0,"k":0},"w":{"a":0,"k":0},"c":{"a":0,"k":[0,0,0,0]},"lc":3,"lj":1,"ml":1},{"ty":"fl","o":{"a":0,"k":100},"r":1,"c":{"a":0,"k":[0.9294117647058824,0.8627450980392157,0.23137254901960785,1]}},{"ty":"tr","o":{"a":0,"k":100},"a":{"a":0,"k":[0,0]},"s":{"a":0,"k":[100,100]},"p":{"a":0,"k":[0,0]},"r":{"a":0,"k":0}}]},{"ty":"gr","nm":"Flying coin04 shape group","it":[{"ty":"sh","ks":{"a":0,"k":{"c":true,"v":[[30.994,5.508],[31.092,5.582],[28.951,7.04],[28.854,6.967]],"i":[[-0.713000000000001,0.48599999999999977],[-0.0329999999999977,-0.024999999999999467],[0.7139999999999986,-0.48599999999999977],[0.03200000000000003,0.02400000000000002]],"o":[[0.03300000000000125,0.025000000000000355],[-0.7139999999999986,0.48599999999999977],[-0.03200000000000003,-0.025000000000000355],[0.713000000000001,-0.4869999999999992]]}}},{"ty":"st","o":{"a":0,"k":0},"w":{"a":0,"k":0},"c":{"a":0,"k":[0,0,0,0]},"lc":3,"lj":1,"ml":1},{"ty":"fl","o":{"a":0,"k":100},"r":1,"c":{"a":0,"k":[0.9294117647058824,0.8627450980392157,0.23137254901960785,1]}},{"ty":"tr","o":{"a":0,"k":100},"a":{"a":0,"k":[0,0]},"s":{"a":0,"k":[100,100]},"p":{"a":0,"k":[0,0]},"r":{"a":0,"k":0}}]},{"ty":"gr","nm":"Flying coin04 shape group","it":[{"ty":"sh","ks":{"a":0,"k":{"c":true,"v":[[30.994,5.508],[28.854,6.9670000000000005],[27.836,6.239000000000001],[29.976999999999997,4.781000000000001]],"i":[[-0.33399999999999963,-0.25],[0.713000000000001,-0.48800000000000043],[0.3440000000000012,0.23399999999999999],[-0.7139999999999986,0.48600000000000065]],"o":[[-0.713000000000001,0.48599999999999977],[-0.33500000000000085,-0.25100000000000033],[0.7139999999999986,-0.48599999999999977],[0.3430000000000035,0.2339999999999991]]}}},{"ty":"st","o":{"a":0,"k":0},"w":{"a":0,"k":0},"c":{"a":0,"k":[0,0,0,0]},"lc":3,"lj":1,"ml":1},{"ty":"fl","o":{"a":0,"k":100},"r":1,"c":{"a":0,"k":[0.9294117647058824,0.8627450980392157,0.23137254901960785,1]}},{"ty":"tr","o":{"a":0,"k":100},"a":{"a":0,"k":[0,0]},"s":{"a":0,"k":[100,100]},"p":{"a":0,"k":[0,0]},"r":{"a":0,"k":0}}]},{"ty":"gr","nm":"Flying coin04 shape group","it":[{"ty":"sh","ks":{"a":0,"k":{"c":true,"v":[[29.977,4.781],[27.836,6.239],[24.201999999999998,4.17],[26.342999999999996,2.7119999999999997]],"i":[[-1.1640000000000015,-0.7919999999999998],[0.7140000000000022,-0.48599999999999977],[1.254999999999999,0.5809999999999995],[-0.7139999999999986,0.4860000000000002]],"o":[[-0.7139999999999986,0.48599999999999977],[-1.1640000000000015,-0.7930000000000001],[0.7139999999999986,-0.48599999999999977],[1.2550000000000026,0.5820000000000003]]}}},{"ty":"st","o":{"a":0,"k":0},"w":{"a":0,"k":0},"c":{"a":0,"k":[0,0,0,0]},"lc":3,"lj":1,"ml":1},{"ty":"fl","o":{"a":0,"k":100},"r":1,"c":{"a":0,"k":[0.9294117647058824,0.8627450980392157,0.23137254901960785,1]}},{"ty":"tr","o":{"a":0,"k":100},"a":{"a":0,"k":[0,0]},"s":{"a":0,"k":[100,100]},"p":{"a":0,"k":[0,0]},"r":{"a":0,"k":0}}]},{"ty":"gr","nm":"Flying coin04 shape group","it":[{"ty":"sh","ks":{"a":0,"k":{"c":true,"v":[[42.851,25.208],[40.71,26.665999999999997],[40.679,26.456999999999997],[40.739000000000004,26.415999999999997],[40.803000000000004,26.372999999999998],[40.86900000000001,26.327999999999996],[40.93600000000001,26.281999999999996],[41.00300000000001,26.235999999999997],[41.06900000000001,26.190999999999995],[41.13300000000001,26.147999999999996],[41.19300000000001,26.106999999999996],[42.81900000000001,24.998999999999995]],"i":[[-0.00999999999999801,-0.06999999999999673],[0.7139999999999986,-0.4859999999999971],[0.01099999999999568,0.07000000000000028],[-0.018000000000000682,0.012000000000000455],[-0.01899999999999835,0.012999999999998124],[-0.020000000000003126,0.013000000000001677],[-0.020000000000003126,0.013999999999999346],[-0.020000000000003126,0.013999999999999346],[-0.020000000000003126,0.013000000000001677],[-0.01899999999999835,0.012999999999998124],[-0.018000000000000682,0.012000000000000455],[-0.5419999999999945,0.3689999999999998]],"o":[[-0.7139999999999986,0.48600000000000065],[-0.00999999999999801,-0.07000000000000028],[0.018000000000000682,-0.012000000000000455],[0.01899999999999835,-0.013000000000001677],[0.020000000000003126,-0.013999999999999346],[0.020000000000003126,-0.013999999999999346],[0.020000000000003126,-0.013999999999999346],[0.020000000000003126,-0.013999999999999346],[0.01899999999999835,-0.013000000000001677],[0.018000000000000682,-0.012000000000000455],[0.5420000000000016,-0.3689999999999998],[0.01199999999999335,0.06900000000000617]]}}},{"ty":"st","o":{"a":0,"k":0},"w":{"a":0,"k":0},"c":{"a":0,"k":[0,0,0,0]},"lc":3,"lj":1,"ml":1},{"ty":"fl","o":{"a":0,"k":100},"r":1,"c":{"a":0,"k":[0.9294117647058824,0.8627450980392157,0.23137254901960785,1]}},{"ty":"tr","o":{"a":0,"k":100},"a":{"a":0,"k":[0,0]},"s":{"a":0,"k":[100,100]},"p":{"a":0,"k":[0,0]},"r":{"a":0,"k":0}}]},{"ty":"gr","nm":"Flying coin04 shape group","it":[{"ty":"sh","ks":{"a":0,"k":{"c":true,"v":[[42.851,25.208],[42.865,25.31],[40.724000000000004,26.767],[40.71,26.666],[40.937,26.512],[41.177,26.348],[41.426,26.177999999999997],[41.68,26.005],[42.65,25.343999999999998],[42.673,25.328],[42.698,25.311],[42.724000000000004,25.293],[42.75000000000001,25.275],[42.77600000000001,25.256999999999998],[42.802000000000014,25.238999999999997],[42.82700000000001,25.221999999999998]],"i":[[-0.006999999999997897,0.005000000000002558],[-0.0040000000000048885,-0.03399999999999892],[0.7139999999999986,-0.48600000000000065],[0.005000000000002558,0.03399999999999892],[-0.06799999999999784,0.045999999999999375],[-0.07200000000000273,0.04900000000000304],[-0.07400000000000517,0.05100000000000193],[-0.07600000000000051,0.0519999999999996],[-0.3230000000000004,0.22000000000000242],[-0.007000000000005002,0.004999999999999005],[-0.007999999999995566,0.004999999999999005],[-0.008000000000002672,0.006000000000000227],[-0.008000000000002672,0.004999999999999005],[-0.008000000000002672,0.004999999999999005],[-0.008000000000002672,0.006000000000000227],[-0.007999999999995566,0.004999999999999005]],"o":[[0.005000000000002558,0.03399999999999892],[-0.7139999999999986,0.48499999999999943],[-0.005000000000002558,-0.03399999999999892],[0.06799999999999784,-0.045999999999999375],[0.07200000000000273,-0.04899999999999949],[0.07500000000000284,-0.05099999999999838],[0.07600000000000051,-0.0519999999999996],[0.3230000000000004,-0.21999999999999886],[0.006999999999997897,-0.004999999999999005],[0.006999999999997897,-0.004999999999999005],[0.008000000000002672,-0.004999999999999005],[0.008000000000002672,-0.004999999999999005],[0.008000000000002672,-0.004999999999999005],[0.008000000000002672,-0.004999999999999005],[0.006999999999997897,-0.004999999999999005],[0.00799999999998846,-0.002999999999996561]]}}},{"ty":"st","o":{"a":0,"k":0},"w":{"a":0,"k":0},"c":{"a":0,"k":[0,0,0,0]},"lc":3,"lj":1,"ml":1},{"ty":"fl","o":{"a":0,"k":100},"r":1,"c":{"a":0,"k":[0.9294117647058824,0.8627450980392157,0.23137254901960785,1]}},{"ty":"tr","o":{"a":0,"k":100},"a":{"a":0,"k":[0,0]},"s":{"a":0,"k":[100,100]},"p":{"a":0,"k":[0,0]},"r":{"a":0,"k":0}}]},{"ty":"gr","nm":"Flying coin04 shape group","it":[{"ty":"sh","ks":{"a":0,"k":{"c":true,"v":[[42.865,25.31],[42.882000000000005,25.438],[40.74100000000001,26.895],[40.724000000000004,26.767]],"i":[[-0.7139999999999986,0.485000000000003],[-0.005000000000002558,-0.04299999999999926],[0.7139999999999986,-0.48600000000000065],[0.006000000000000227,0.04299999999999926]],"o":[[0.006000000000000227,0.04299999999999926],[-0.7139999999999986,0.48499999999999943],[-0.006000000000000227,-0.04299999999999926],[0.7139999999999986,-0.48600000000000065]]}}},{"ty":"st","o":{"a":0,"k":0},"w":{"a":0,"k":0},"c":{"a":0,"k":[0,0,0,0]},"lc":3,"lj":1,"ml":1},{"ty":"fl","o":{"a":0,"k":100},"r":1,"c":{"a":0,"k":[0.9294117647058824,0.8627450980392157,0.23137254901960785,1]}},{"ty":"tr","o":{"a":0,"k":100},"a":{"a":0,"k":[0,0]},"s":{"a":0,"k":[100,100]},"p":{"a":0,"k":[0,0]},"r":{"a":0,"k":0}}]},{"ty":"gr","nm":"Flying coin04 shape group","it":[{"ty":"sh","ks":{"a":0,"k":{"c":true,"v":[[43.086,29.259],[42.931999999999995,31.297],[40.791,32.754],[40.945,30.717],[40.741,26.894],[42.882,25.436999999999998]],"i":[[0.036000000000001364,-1.2699999999999996],[0.08200000000000074,-0.6610000000000014],[0.027000000000001023,-0.017999999999993577],[-0.020000000000003126,0.695999999999998],[0.1700000000000017,1.274000000000001],[-0.7139999999999986,0.48499999999999943]],"o":[[-0.020000000000003126,0.6969999999999992],[-0.012999999999998124,0.009000000000000341],[0.08200000000000074,-0.6610000000000014],[0.036000000000001364,-1.2699999999999996],[0.713000000000001,-0.48600000000000065],[0.1700000000000017,1.274000000000001]]}}},{"ty":"st","o":{"a":0,"k":0},"w":{"a":0,"k":0},"c":{"a":0,"k":[0,0,0,0]},"lc":3,"lj":1,"ml":1},{"ty":"fl","o":{"a":0,"k":100},"r":1,"c":{"a":0,"k":[0.9294117647058824,0.8627450980392157,0.23137254901960785,1]}},{"ty":"tr","o":{"a":0,"k":100},"a":{"a":0,"k":[0,0]},"s":{"a":0,"k":[100,100]},"p":{"a":0,"k":[0,0]},"r":{"a":0,"k":0}}]},{"ty":"gr","nm":"Flying coin04 shape group","it":[{"ty":"sh","ks":{"a":0,"k":{"c":true,"v":[[23.433,1.596],[26.344,2.713],[24.203000000000003,4.171],[21.293000000000003,3.0540000000000003]],"i":[[-0.6430000000000007,0.43699999999999983],[-0.9490000000000016,-0.43999999999999995],[0.7129999999999974,-0.4860000000000002],[0.9890000000000008,0.30299999999999994]],"o":[[0.9899999999999984,0.30299999999999994],[-0.7139999999999986,0.4849999999999999],[-0.9490000000000016,-0.43999999999999995],[0.6409999999999982,-0.43800000000000017]]}}},{"ty":"st","o":{"a":0,"k":0},"w":{"a":0,"k":0},"c":{"a":0,"k":[0,0,0,0]},"lc":3,"lj":1,"ml":1},{"ty":"fl","o":{"a":0,"k":100},"r":1,"c":{"a":0,"k":[0.9294117647058824,0.8627450980392157,0.23137254901960785,1]}},{"ty":"tr","o":{"a":0,"k":100},"a":{"a":0,"k":[0,0]},"s":{"a":0,"k":[100,100]},"p":{"a":0,"k":[0,0]},"r":{"a":0,"k":0}}]},{"ty":"gr","nm":"Flying coin04 shape group","it":[{"ty":"sh","ks":{"a":0,"k":{"c":true,"v":[[24.258,2.766],[30.785,6.318],[28.644,7.776],[22.116999999999997,4.224]],"i":[[-0.6430000000000007,0.43699999999999983],[-2.0139999999999993,-1.520999999999999],[0.7140000000000022,-0.48600000000000065],[2.3150000000000013,0.815999999999999]],"o":[[2.314,0.815],[-0.7139999999999986,0.48599999999999977],[-2.0139999999999993,-1.521],[0.642000000000003,-0.4370000000000003]]}}},{"ty":"st","o":{"a":0,"k":0},"w":{"a":0,"k":0},"c":{"a":0,"k":[0,0,0,0]},"lc":3,"lj":1,"ml":1},{"ty":"fl","o":{"a":0,"k":100},"r":1,"c":{"a":0,"k":[0.996078431372549,0.9568627450980393,0.5529411764705883,1]}},{"ty":"tr","o":{"a":0,"k":100},"a":{"a":0,"k":[0,0]},"s":{"a":0,"k":[100,100]},"p":{"a":0,"k":[0,0]},"r":{"a":0,"k":0}}]},{"ty":"gr","nm":"Flying coin04 shape group","it":[{"ty":"sh","ks":{"a":0,"k":{"c":true,"v":[[27.156,7.322],[29.296999999999997,5.864],[29.734999999999996,5.813],[27.593,7.27]],"i":[[0.11899999999999977,-0.0810000000000004],[0,0],[-0.16199999999999903,-0.04999999999999982],[0,0]],"o":[[0,0],[0.11899999999999977,-0.0810000000000004],[0,0],[-0.16100000000000136,-0.04899999999999949]]}}},{"ty":"st","o":{"a":0,"k":0},"w":{"a":0,"k":0},"c":{"a":0,"k":[0,0,0,0]},"lc":3,"lj":1,"ml":1},{"ty":"fl","o":{"a":0,"k":100},"r":1,"c":{"a":0,"k":[0.9254901960784314,0.8666666666666667,0.2901960784313726,1]}},{"ty":"tr","o":{"a":0,"k":100},"a":{"a":0,"k":[0,0]},"s":{"a":0,"k":[100,100]},"p":{"a":0,"k":[0,0]},"r":{"a":0,"k":0}}]},{"ty":"gr","nm":"Flying coin04 shape group","it":[{"ty":"sh","ks":{"a":0,"k":{"c":true,"v":[[21.963,9.597],[35.033,28.909999999999997],[21.095,39.965999999999994],[20.243,39.73199999999999],[6.331,20.135],[21.113,9.311000000000002]],"i":[[-0.28100000000000236,-0.10299999999999976],[0.23100000000000165,-8.095999999999997],[7.550000000000004,1.838000000000001],[0.28600000000000136,0.08800000000000097],[-0.24100000000000055,8.405999999999999],[-7.925999999999998,-2.423]],"o":[[7.524000000000001,2.770999999999999],[-0.23199999999999932,8.104],[-0.28200000000000003,-0.06900000000000261],[-7.925999999999998,-2.4229999999999947],[0.2400000000000002,-8.398],[0.28600000000000136,0.08699999999999797]]}}},{"ty":"sh","ks":{"a":0,"k":{"c":true,"v":[[21.516,34.086],[25.852999999999998,30.131999999999998],[18.763999999999996,19.346999999999998],[21.184999999999995,17.779999999999998],[23.426999999999996,19.261],[24.127999999999997,19.718],[25.066999999999997,19.56],[24.961999999999996,17.610999999999997],[22.045999999999996,15.399999999999997],[22.052999999999997,15.299999999999997],[22.099999999999998,13.664999999999997],[21.060999999999996,12.209999999999997],[19.956999999999997,13.009999999999998],[19.909999999999997,14.644999999999998],[19.914999999999996,14.795999999999998],[15.764999999999995,18.592],[22.843999999999994,29.448],[20.174999999999994,31.101],[17.149999999999995,29.112],[16.532999999999994,28.729],[15.481999999999994,29.008],[15.426999999999994,29.072],[15.768999999999995,31.044999999999998],[19.369999999999994,33.515],[19.320999999999994,35.226],[20.359999999999996,36.689],[21.463999999999995,35.881]],"i":[[0,0],[-0.0779999999999994,2.7169999999999987],[-0.09799999999999898,3.437999999999999],[-1.4740000000000002,-0.4499999999999993],[-0.6539999999999999,-0.7110000000000021],[-0.2469999999999999,-0.07600000000000051],[-0.2510000000000012,0.21499999999999986],[0.5489999999999995,0.6310000000000002],[1.1930000000000014,0.5289999999999999],[-0.0010000000000012221,0.03399999999999892],[0,0],[0.5920000000000023,0.18100000000000094],[0.018000000000000682,-0.620000000000001],[0,0],[-0.003999999999997783,-0.049999999999998934],[0.07699999999999996,-2.6830000000000016],[0.10800000000000054,-3.777000000000001],[1.754999999999999,0.5370000000000026],[0.9469999999999992,0.9469999999999992],[0.2140000000000022,0.06499999999999773],[0.24399999999999977,-0.3069999999999986],[0,0],[-0.5810000000000013,-0.5839999999999996],[-1.2219999999999978,-0.517000000000003],[0,0],[-0.593,-0.1810000000000045],[-0.018000000000000682,0.6280000000000001]],"o":[[2.689,0.3049999999999997],[0.16600000000000037,-5.798000000000002],[0.04200000000000159,-1.4570000000000007],[0.911999999999999,0.2789999999999999],[0.20899999999999963,0.2270000000000003],[0.34299999999999997,0.10500000000000043],[0.4869999999999983,-0.4200000000000017],[-0.786999999999999,-0.9130000000000003],[0.004000000000001336,-0.03200000000000003],[0,0],[0.018000000000000682,-0.6199999999999992],[-0.593,-0.18099999999999916],[0,0],[-0.0010000000000012221,0.05000000000000071],[-2.466000000000001,-0.2919999999999998],[-0.15300000000000047,5.3629999999999995],[-0.04400000000000048,1.5300000000000011],[-1.0940000000000012,-0.33500000000000085],[-0.18900000000000006,-0.19000000000000128],[-0.4029999999999987,-0.12300000000000111],[0,0],[-0.4060000000000006,0.5100000000000016],[1.0730000000000004,1.0650000000000013],[0,0],[-0.018000000000000682,0.6280000000000001],[0.593,0.18099999999999739],[0,0]]}}},{"ty":"st","o":{"a":0,"k":0},"w":{"a":0,"k":0},"c":{"a":0,"k":[0,0,0,0]},"lc":3,"lj":1,"ml":1},{"ty":"fl","o":{"a":0,"k":100},"r":1,"c":{"a":0,"k":[0.9294117647058824,0.8627450980392157,0.23137254901960785,1]}},{"ty":"tr","o":{"a":0,"k":100},"a":{"a":0,"k":[0,0]},"s":{"a":0,"k":[100,100]},"p":{"a":0,"k":[0,0]},"r":{"a":0,"k":0}}]},{"ty":"gr","nm":"Flying coin04 shape group","it":[{"ty":"sh","ks":{"a":0,"k":{"c":true,"v":[[16.888,0.756],[23.433,1.595],[21.292,3.053],[14.747000000000002,2.214],[14.997000000000002,2.044],[15.262000000000002,1.863],[15.537000000000003,1.676],[15.817000000000002,1.4849999999999999],[16.097,1.2939999999999998],[16.235000000000003,1.1999999999999997],[16.372000000000003,1.1069999999999998],[16.506000000000004,1.0159999999999998],[16.764000000000003,0.8399999999999999]],"i":[[-0.04200000000000159,0.015000000000000013],[-2.2739999999999974,-0.695],[0,0],[2.069000000000001,-0.1200000000000001],[-0.07499999999999929,0.05099999999999971],[-0.07900000000000063,0.05500000000000016],[-0.08200000000000074,0.05600000000000005],[-0.08399999999999963,0.05699999999999994],[-0.08399999999999963,0.05700000000000016],[-0.04100000000000037,0.028000000000000025],[-0.04100000000000037,0.028000000000000025],[-0.03999999999999915,0.026999999999999913],[-0.07699999999999818,0.052999999999999936]],"o":[[2.068999999999999,-0.12],[0,0],[-2.2729999999999997,-0.6949999999999998],[0.07499999999999929,-0.051000000000000156],[0.08000000000000007,-0.05400000000000005],[0.08300000000000018,-0.05600000000000005],[0.08399999999999963,-0.05699999999999994],[0.08399999999999963,-0.05699999999999994],[0.04200000000000159,-0.028000000000000025],[0.04100000000000037,-0.028000000000000025],[0.03999999999999915,-0.026999999999999913],[0.07700000000000173,-0.05300000000000005],[0.0379999999999967,-0.02499999999999991]]}}},{"ty":"st","o":{"a":0,"k":0},"w":{"a":0,"k":0},"c":{"a":0,"k":[0,0,0,0]},"lc":3,"lj":1,"ml":1},{"ty":"fl","o":{"a":0,"k":100},"r":1,"c":{"a":0,"k":[0.9294117647058824,0.8627450980392157,0.23137254901960785,1]}},{"ty":"tr","o":{"a":0,"k":100},"a":{"a":0,"k":[0,0]},"s":{"a":0,"k":[100,100]},"p":{"a":0,"k":[0,0]},"r":{"a":0,"k":0}}]},{"ty":"gr","nm":"Flying coin04 shape group","it":[{"ty":"sh","ks":{"a":0,"k":{"c":true,"v":[[21.261,4.133],[20.611,4.617],[20.53,7.459],[21.141000000000002,8.328],[21.113,9.31],[6.331,20.135],[20.244,39.732],[20.216,40.722],[19.566000000000003,41.197],[19.484,44.047000000000004],[20.096,44.908],[20.065,45.995000000000005],[0.418,18.327],[21.291999999999998,3.054000000000002]],"i":[[0,0],[0.010999999999999233,-0.37099999999999955],[0,0],[-0.3490000000000002,-0.10699999999999932],[0,0],[0.23999999999999932,-8.399000000000001],[-7.927,-2.423000000000002],[0,0],[0.010999999999999233,-0.37000000000000455],[0,0],[-0.34999999999999787,-0.10699999999999932],[0,0],[-0.33699999999999997,11.780999999999999],[-11.110999999999999,-3.397000000000002]],"o":[[-0.3500000000000014,-0.1070000000000002],[0,0],[-0.010999999999999233,0.3700000000000001],[0,0],[-7.926,-2.423000000000001],[-0.2400000000000002,8.407],[0,0],[-0.3500000000000014,-0.10699999999999932],[0,0],[-0.010999999999999233,0.36999999999999744],[0,0],[-11.111,-3.395000000000003],[0.3369999999999999,-11.780999999999999],[0,0]]}}},{"ty":"sh","ks":{"a":0,"k":{"c":false,"v":[[7.818,35.397],[7.867,36.362],[8.268,36.645],[8.758000000000001,36.554],[10.553,34.902],[10.497000000000002,33.926],[10.098000000000003,33.648],[9.605000000000002,33.743]],"i":[[0,0],[-0.25900000000000034,-0.3230000000000004],[-0.14300000000000068,-0.044000000000004036],[-0.12700000000000067,0.11899999999999977],[0,0],[0.266,0.32499999999999574],[0.1429999999999989,0.04399999999999693],[0.13199999999999967,-0.12299999999999756]],"o":[[-0.23599999999999977,0.2120000000000033],[0.11500000000000021,0.14300000000000068],[0.18099999999999916,0.054999999999999716],[0,0],[0.2289999999999992,-0.22299999999999898],[-0.11500000000000021,-0.1390000000000029],[-0.17999999999999972,-0.054999999999999716],[0,0]]}}},{"ty":"sh","ks":{"a":0,"k":{"c":false,"v":[[11.207,9.109],[11.318000000000001,8.192],[9.647,5.48],[9.171,5.093],[8.761,5.128],[8.658,6.047],[10.321,8.757],[10.799999999999999,9.145]],"i":[[-0.12100000000000044,0.07000000000000028],[0.21199999999999974,0.34999999999999964],[0,0],[0.18100000000000094,0.05600000000000005],[0.120000000000001,-0.07099999999999973],[-0.21999999999999886,-0.3519999999999994],[0,0],[-0.17999999999999972,-0.054999999999999716]],"o":[[0.27999999999999936,-0.15000000000000036],[0,0],[-0.11800000000000033,-0.19500000000000028],[-0.14400000000000013,-0.043999999999999595],[-0.2729999999999997,0.15200000000000014],[0,0],[0.12299999999999933,0.19599999999999973],[0.14200000000000124,0.041999999999999815]]}}},{"ty":"sh","ks":{"a":0,"k":{"c":false,"v":[[7.671,12.381],[7.469,11.393],[5.178,9.255],[4.865,9.068],[4.312,9.235],[4.514,10.222999999999999],[6.806,12.361999999999998],[7.114,12.545999999999998]],"i":[[-0.12300000000000022,0.17499999999999893],[0.2990000000000004,0.2779999999999987],[0,0],[0.1070000000000002,0.03200000000000003],[0.12300000000000022,-0.17900000000000027],[-0.2990000000000004,-0.2779999999999987],[0,0],[-0.10599999999999987,-0.03200000000000003]],"o":[[0.18400000000000016,-0.26900000000000013],[0,0],[-0.09699999999999953,-0.09200000000000053],[-0.2160000000000002,-0.06600000000000072],[-0.18400000000000016,0.26900000000000013],[0,0],[0.09600000000000009,0.0909999999999993],[0.21700000000000053,0.06500000000000306]]}}},{"ty":"sh","ks":{"a":0,"k":{"c":false,"v":[[6.357,28.07],[3.983,28.774],[3.729,29.622],[4.269,30.129],[4.581,30.134],[6.955,29.422],[7.209,28.574],[6.675,28.075000000000003]],"i":[[0.09999999999999964,-0.030999999999998806],[0,0],[-0.16599999999999993,-0.375],[-0.21799999999999997,-0.06700000000000017],[-0.0990000000000002,0.03100000000000236],[0,0],[0.16600000000000037,0.375],[0.2160000000000002,0.06599999999999895]],"o":[[0,0],[-0.30900000000000016,0.09199999999999875],[0.11100000000000021,0.2530000000000001],[0.10599999999999987,0.03200000000000003],[0,0],[0.30900000000000016,-0.09199999999999875],[-0.11000000000000032,-0.25],[-0.10799999999999965,-0.03200000000000358]]}}},{"ty":"sh","ks":{"a":0,"k":{"c":false,"v":[[15.893,7.706],[16.29,6.958],[15.447,4.004],[14.869,3.3799999999999994],[14.653,3.3549999999999995],[14.248000000000001,4.1],[15.091000000000001,7.054],[15.669,7.679]],"i":[[-0.07500000000000107,0.005999999999999339],[0.11100000000000065,0.39200000000000035],[0,0],[0.2579999999999991,0.07900000000000018],[0.07199999999999918,-0.006000000000000227],[-0.11100000000000065,-0.383],[0,0],[-0.26099999999999923,-0.08000000000000007]],"o":[[0.3299999999999983,-0.028999999999999915],[0,0],[-0.08200000000000074,-0.29899999999999993],[-0.07099999999999973,-0.021999999999999797],[-0.3379999999999992,0.027000000000000135],[0,0],[0.08099999999999952,0.30299999999999994],[0.0730000000000004,0.02400000000000002]]}}},{"ty":"sh","ks":{"a":0,"k":{"c":false,"v":[[13.201,40.698],[13.556000000000001,41.676],[13.766000000000002,41.778],[14.373000000000001,41.519],[15.369000000000002,39.119],[15.021,38.152],[14.799000000000001,38.042],[14.197000000000001,38.298]],"i":[[0,0],[-0.33000000000000007,-0.23100000000000165],[-0.0710000000000015,-0.02099999999999369],[-0.09699999999999953,0.24600000000000222],[0,0],[0.3230000000000004,0.21999999999999886],[0.07399999999999984,0.021999999999998465],[0.09600000000000009,-0.24199999999999733]],"o":[[-0.13100000000000023,0.3089999999999975],[0.06900000000000084,0.046999999999997044],[0.2599999999999998,0.07900000000000063],[0,0],[0.13100000000000023,-0.3089999999999975],[-0.0730000000000004,-0.05100000000000193],[-0.2599999999999998,-0.0799999999999983],[0,0]]}}},{"ty":"sh","ks":{"a":0,"k":{"c":false,"v":[[1.834,15.194],[2.329,16.125],[4.959,17.433],[5.066999999999999,17.476],[5.712,17.111],[5.217,16.18],[2.5789999999999997,14.87],[2.469,14.825999999999999]],"i":[[0.06399999999999983,-0.3130000000000006],[-0.3480000000000001,-0.17099999999999937],[0,0],[-0.03599999999999959,-0.010999999999999233],[-0.06400000000000006,0.3069999999999986],[0.3410000000000002,0.16100000000000136],[0,0],[0.03600000000000003,0.011000000000001009]],"o":[[-0.07099999999999995,0.3439999999999994],[0,0],[0.03599999999999959,0.018000000000000682],[0.3019999999999996,0.09199999999999875],[0.07099999999999973,-0.3440000000000012],[0,0],[-0.03699999999999992,-0.018000000000000682],[-0.29899999999999993,-0.09199999999999875]]}}},{"ty":"sh","ks":{"a":0,"k":{"c":true,"v":[[2.237,23.02],[2.345,23.043],[5.011,23.355],[5.55,22.740000000000002],[4.9399999999999995,21.991000000000003],[4.829,21.967000000000002],[2.17,21.650000000000002],[1.6309999999999998,22.273000000000003]],"i":[[-0.30000000000000004,-0.09199999999999875],[-0.03600000000000003,-0.004000000000001336],[0,0],[0.04999999999999982,0.3809999999999967],[0.3000000000000007,0.09099999999999753],[0.03699999999999992,0.005000000000002558],[0,0],[-0.05099999999999971,-0.3810000000000002]],"o":[[0.03600000000000003,0.010999999999999233],[0,0],[0.3440000000000003,0.03999999999999915],[-0.04499999999999993,-0.3470000000000013],[-0.03699999999999992,-0.010999999999999233],[0,0],[-0.351,-0.04200000000000159],[0.04600000000000026,0.3389999999999951]]}}},{"ty":"st","o":{"a":0,"k":0},"w":{"a":0,"k":0},"c":{"a":0,"k":[0,0,0,0]},"lc":3,"lj":1,"ml":1},{"ty":"fl","o":{"a":0,"k":100},"r":1,"c":{"a":0,"k":[0.9921568627450981,0.9725490196078431,0.7568627450980392,1]}},{"ty":"tr","o":{"a":0,"k":100},"a":{"a":0,"k":[0,0]},"s":{"a":0,"k":[100,100]},"p":{"a":0,"k":[0,0]},"r":{"a":0,"k":0}}]},{"ty":"gr","nm":"Flying coin04 shape group","it":[{"ty":"sh","ks":{"a":0,"k":{"c":true,"v":[[21.261,4.133],[21.88,5.005],[21.799,7.8469999999999995],[21.141,8.328],[20.529999999999998,7.459],[20.610999999999997,4.616999999999999]],"i":[[-0.3490000000000002,-0.1070000000000002],[0.010999999999999233,-0.37099999999999955],[0,0],[0.35700000000000287,0.10899999999999999],[-0.010999999999999233,0.3700000000000001],[0,0]],"o":[[0.3569999999999993,0.10899999999999999],[0,0],[-0.010999999999999233,0.3699999999999992],[-0.3500000000000014,-0.10699999999999932],[0,0],[0.011000000000002785,-0.37099999999999866]]}}},{"ty":"st","o":{"a":0,"k":0},"w":{"a":0,"k":0},"c":{"a":0,"k":[0,0,0,0]},"lc":3,"lj":1,"ml":1},{"ty":"fl","o":{"a":0,"k":100},"r":1,"c":{"a":0,"k":[0.9254901960784314,0.8666666666666667,0.2901960784313726,1]}},{"ty":"tr","o":{"a":0,"k":100},"a":{"a":0,"k":[0,0]},"s":{"a":0,"k":[100,100]},"p":{"a":0,"k":[0,0]},"r":{"a":0,"k":0}}]},{"ty":"gr","nm":"Flying coin04 shape group","it":[{"ty":"sh","ks":{"a":0,"k":{"c":true,"v":[[42.932,31.297],[42.924,31.363],[40.783,32.821],[40.791000000000004,32.754]],"i":[[-0.01300000000000523,0.009000000000000341],[0.0020000000000024443,-0.021999999999998465],[0.7139999999999986,-0.4859999999999971],[-0.0020000000000024443,0.021999999999998465]],"o":[[-0.0030000000000001137,0.021999999999998465],[-0.7139999999999986,0.48600000000000065],[0.0030000000000001137,-0.021999999999998465],[0.026999999999993918,-0.018000000000000682]]}}},{"ty":"st","o":{"a":0,"k":0},"w":{"a":0,"k":0},"c":{"a":0,"k":[0,0,0,0]},"lc":3,"lj":1,"ml":1},{"ty":"fl","o":{"a":0,"k":100},"r":1,"c":{"a":0,"k":[0.9294117647058824,0.8627450980392157,0.23137254901960785,1]}},{"ty":"tr","o":{"a":0,"k":100},"a":{"a":0,"k":[0,0]},"s":{"a":0,"k":[100,100]},"p":{"a":0,"k":[0,0]},"r":{"a":0,"k":0}}]},{"ty":"gr","nm":"Flying coin04 shape group","it":[{"ty":"sh","ks":{"a":0,"k":{"c":true,"v":[[20.825,4.184],[22.966,2.726],[23.402,2.675],[21.261000000000003,4.133]],"i":[[0.11599999999999966,-0.07899999999999974],[0,0],[-0.1670000000000016,-0.05099999999999971],[0,0]],"o":[[0,0],[0.11599999999999966,-0.07900000000000018],[0,0],[-0.1670000000000016,-0.051000000000000156]]}}},{"ty":"st","o":{"a":0,"k":0},"w":{"a":0,"k":0},"c":{"a":0,"k":[0,0,0,0]},"lc":3,"lj":1,"ml":1},{"ty":"fl","o":{"a":0,"k":100},"r":1,"c":{"a":0,"k":[0.9254901960784314,0.8666666666666667,0.2901960784313726,1]}},{"ty":"tr","o":{"a":0,"k":100},"a":{"a":0,"k":[0,0]},"s":{"a":0,"k":[100,100]},"p":{"a":0,"k":[0,0]},"r":{"a":0,"k":0}}]},{"ty":"gr","nm":"Flying coin04 shape group","it":[{"ty":"sh","ks":{"a":0,"k":{"c":true,"v":[[21.292,3.054],[23.433,1.596],[23.402,2.675],[21.261,4.133]],"i":[[0,0],[0,0],[0,0],[0,0]],"o":[[0,0],[0,0],[0,0],[0,0]]}}},{"ty":"st","o":{"a":0,"k":0},"w":{"a":0,"k":0},"c":{"a":0,"k":[0,0,0,0]},"lc":3,"lj":1,"ml":1},{"ty":"fl","o":{"a":0,"k":100},"r":1,"c":{"a":0,"k":[0.9921568627450981,0.9725490196078431,0.7568627450980392,1]}},{"ty":"tr","o":{"a":0,"k":100},"a":{"a":0,"k":[0,0]},"s":{"a":0,"k":[100,100]},"p":{"a":0,"k":[0,0]},"r":{"a":0,"k":0}}]},{"ty":"gr","nm":"Flying coin04 shape group","it":[{"ty":"sh","ks":{"a":0,"k":{"c":true,"v":[[42.924,31.364],[42.641,33.029],[40.5,34.487],[40.783,32.822],[41.033,32.652],[41.298,32.471000000000004],[41.573,32.284000000000006],[41.853,32.093],[42.133,31.902000000000005],[42.408,31.715000000000003],[42.673,31.534000000000002]],"i":[[-0.07500000000000284,0.05099999999999838],[0.11599999999999966,-0.5410000000000039],[0.7139999999999986,-0.4859999999999971],[-0.07200000000000273,0.5690000000000026],[-0.07500000000000284,0.05100000000000193],[-0.07900000000000063,0.054999999999999716],[-0.08200000000000074,0.055999999999997385],[-0.08400000000000318,0.05700000000000216],[-0.08400000000000318,0.05699999999999861],[-0.08200000000000074,0.05600000000000094],[-0.07900000000000063,0.054999999999999716]],"o":[[-0.07200000000000273,0.5689999999999991],[-0.7139999999999986,0.4859999999999971],[0.11599999999999966,-0.5409999999999968],[0.07500000000000284,-0.05100000000000193],[0.0799999999999983,-0.054000000000002046],[0.08299999999999841,-0.055999999999997385],[0.08400000000000318,-0.05700000000000216],[0.08400000000000318,-0.05700000000000216],[0.08299999999999841,-0.05600000000000094],[0.0799999999999983,-0.053999999999998494],[0.07600000000000051,-0.05100000000000193]]}}},{"ty":"st","o":{"a":0,"k":0},"w":{"a":0,"k":0},"c":{"a":0,"k":[0,0,0,0]},"lc":3,"lj":1,"ml":1},{"ty":"fl","o":{"a":0,"k":100},"r":1,"c":{"a":0,"k":[0.9294117647058824,0.8627450980392157,0.23137254901960785,1]}},{"ty":"tr","o":{"a":0,"k":100},"a":{"a":0,"k":[0,0]},"s":{"a":0,"k":[100,100]},"p":{"a":0,"k":[0,0]},"r":{"a":0,"k":0}}]},{"ty":"gr","nm":"Flying coin04 shape group","it":[{"ty":"sh","ks":{"a":0,"k":{"c":true,"v":[[42.625,33.102],[42.597,33.120999999999995],[42.38,33.269],[42.135000000000005,33.436],[40.484,34.56],[40.5,34.487],[40.75,34.317],[41.015,34.136],[41.29,33.949000000000005],[41.57,33.758],[41.85,33.567],[42.125,33.38],[42.39,33.199000000000005],[42.64,33.029]],"i":[[0.005000000000002558,-0.02499999999999858],[0.007999999999995566,-0.006000000000000227],[0.07199999999999562,-0.05000000000000426],[0.08200000000000074,-0.05600000000000449],[0.5500000000000043,-0.37400000000000233],[-0.0049999999999954525,0.02400000000000091],[-0.07500000000000284,0.05100000000000193],[-0.07900000000000063,0.054999999999999716],[-0.08200000000000074,0.055999999999997385],[-0.08400000000000318,0.05700000000000216],[-0.08400000000000318,0.05700000000000216],[-0.08200000000000074,0.055999999999997385],[-0.07900000000000063,0.054999999999999716],[-0.07500000000000284,0.05100000000000193]],"o":[[-0.006000000000000227,0.008000000000002672],[-0.07200000000000273,0.04899999999999949],[-0.08200000000000074,0.055999999999997385],[-0.5499999999999972,0.375],[0.005000000000002558,-0.02400000000000091],[0.07500000000000284,-0.05100000000000193],[0.0799999999999983,-0.054000000000002046],[0.08299999999999841,-0.055999999999997385],[0.08400000000000318,-0.05700000000000216],[0.08400000000000318,-0.05700000000000216],[0.08299999999999841,-0.055999999999997385],[0.0799999999999983,-0.054000000000002046],[0.07500000000000284,-0.05100000000000193],[-0.005000000000002558,0.023999999999993804]]}}},{"ty":"st","o":{"a":0,"k":0},"w":{"a":0,"k":0},"c":{"a":0,"k":[0,0,0,0]},"lc":3,"lj":1,"ml":1},{"ty":"fl","o":{"a":0,"k":100},"r":1,"c":{"a":0,"k":[0.9294117647058824,0.8627450980392157,0.23137254901960785,1]}},{"ty":"tr","o":{"a":0,"k":100},"a":{"a":0,"k":[0,0]},"s":{"a":0,"k":[100,100]},"p":{"a":0,"k":[0,0]},"r":{"a":0,"k":0}}]},{"ty":"gr","nm":"Flying coin04 shape group","it":[{"ty":"sh","ks":{"a":0,"k":{"c":true,"v":[[42.625,33.102],[42.609,33.172999999999995],[40.468,34.63099999999999],[40.484,34.559999999999995],[42.135000000000005,33.43599999999999],[42.25300000000001,33.355999999999995],[42.31600000000001,33.312999999999995],[42.38000000000001,33.269],[42.44400000000001,33.225],[42.50700000000001,33.182],[42.56800000000001,33.141000000000005]],"i":[[-0.017000000000003013,0.011000000000002785],[0.006000000000000227,-0.02400000000000091],[0.7139999999999986,-0.4859999999999971],[-0.006000000000000227,0.02400000000000091],[-0.5500000000000043,0.37400000000000233],[-0.03900000000000148,0.02599999999999625],[-0.019000000000005457,0.012999999999998124],[-0.01899999999999835,0.012999999999998124],[-0.01899999999999835,0.012999999999998124],[-0.019000000000005457,0.012999999999998124],[-0.01899999999999835,0.01199999999999335]],"o":[[-0.005000000000002558,0.02400000000000091],[-0.7139999999999986,0.4859999999999971],[0.005000000000002558,-0.02400000000000091],[0.5499999999999972,-0.375],[0.03900000000000148,-0.027000000000001023],[0.01899999999999835,-0.012999999999998124],[0.01899999999999835,-0.012999999999998124],[0.01899999999999835,-0.012999999999998124],[0.01899999999999835,-0.012999999999998124],[0.018000000000000682,-0.012000000000000455],[0.016999999999988802,-0.01200000000000756]]}}},{"ty":"st","o":{"a":0,"k":0},"w":{"a":0,"k":0},"c":{"a":0,"k":[0,0,0,0]},"lc":3,"lj":1,"ml":1},{"ty":"fl","o":{"a":0,"k":100},"r":1,"c":{"a":0,"k":[0.9294117647058824,0.8627450980392157,0.23137254901960785,1]}},{"ty":"tr","o":{"a":0,"k":100},"a":{"a":0,"k":[0,0]},"s":{"a":0,"k":[100,100]},"p":{"a":0,"k":[0,0]},"r":{"a":0,"k":0}}]},{"ty":"gr","nm":"Flying coin04 shape group","it":[{"ty":"sh","ks":{"a":0,"k":{"c":true,"v":[[42.581,33.295],[42.557,33.311],[42.372,33.437],[42.163,33.58],[41.748999999999995,33.861999999999995],[41.528,34.013],[41.303,34.166],[40.442,34.751999999999995],[40.47,34.629],[40.72,34.458999999999996],[40.985,34.278],[41.26,34.091],[41.54,33.9],[41.82,33.708999999999996],[42.095,33.522],[42.36,33.341],[42.61,33.171]],"i":[[0.00999999999999801,-0.04100000000000392],[0.006999999999997897,-0.0049999999999954525],[0.06099999999999994,-0.041999999999994486],[0.06900000000000261,-0.04800000000000182],[0.13799999999999812,-0.09399999999999409],[0.0659999999999954,-0.045000000000001705],[0.06700000000000017,-0.045999999999999375],[0.28699999999999903,-0.19500000000000028],[-0.009000000000000341,0.04099999999999682],[-0.07500000000000284,0.05100000000000193],[-0.07900000000000063,0.054999999999999716],[-0.08200000000000074,0.055999999999997385],[-0.08400000000000318,0.05700000000000216],[-0.08400000000000318,0.05700000000000216],[-0.08200000000000074,0.055999999999997385],[-0.07900000000000063,0.054999999999999716],[-0.07500000000000284,0.05100000000000193]],"o":[[-0.005000000000002558,0.006999999999997897],[-0.06199999999999761,0.04200000000000159],[-0.07000000000000028,0.04800000000000182],[-0.13799999999999812,0.0940000000000012],[-0.0660000000000025,0.045000000000001705],[-0.06799999999999784,0.045999999999999375],[-0.28699999999999903,0.19500000000000028],[0.009000000000000341,-0.04099999999999682],[0.07500000000000284,-0.05100000000000193],[0.0799999999999983,-0.054000000000002046],[0.08299999999999841,-0.055999999999997385],[0.08400000000000318,-0.05700000000000216],[0.08400000000000318,-0.05700000000000216],[0.08299999999999841,-0.055999999999997385],[0.0799999999999983,-0.054000000000002046],[0.07500000000000284,-0.05100000000000193],[-0.00999999999999801,0.04200000000000159]]}}},{"ty":"st","o":{"a":0,"k":0},"w":{"a":0,"k":0},"c":{"a":0,"k":[0,0,0,0]},"lc":3,"lj":1,"ml":1},{"ty":"fl","o":{"a":0,"k":100},"r":1,"c":{"a":0,"k":[0.9294117647058824,0.8627450980392157,0.23137254901960785,1]}},{"ty":"tr","o":{"a":0,"k":100},"a":{"a":0,"k":[0,0]},"s":{"a":0,"k":[100,100]},"p":{"a":0,"k":[0,0]},"r":{"a":0,"k":0}}]},{"ty":"gr","nm":"Flying coin04 shape group","it":[{"ty":"sh","ks":{"a":0,"k":{"c":true,"v":[[42.581,33.295],[42.221000000000004,34.631],[40.080000000000005,36.089],[40.440000000000005,34.753]],"i":[[-0.713000000000001,0.4859999999999971],[0.134999999999998,-0.43499999999999517],[0.7139999999999986,-0.4859999999999971],[-0.10499999999999687,0.45599999999999596]],"o":[[-0.10499999999999687,0.45600000000000307],[-0.7139999999999986,0.4859999999999971],[0.134999999999998,-0.4350000000000023],[0.7139999999999986,-0.4859999999999971]]}}},{"ty":"st","o":{"a":0,"k":0},"w":{"a":0,"k":0},"c":{"a":0,"k":[0,0,0,0]},"lc":3,"lj":1,"ml":1},{"ty":"fl","o":{"a":0,"k":100},"r":1,"c":{"a":0,"k":[0.9294117647058824,0.8627450980392157,0.23137254901960785,1]}},{"ty":"tr","o":{"a":0,"k":100},"a":{"a":0,"k":[0,0]},"s":{"a":0,"k":[100,100]},"p":{"a":0,"k":[0,0]},"r":{"a":0,"k":0}}]},{"ty":"gr","nm":"Flying coin04 shape group","it":[{"ty":"sh","ks":{"a":0,"k":{"c":true,"v":[[42.222,34.631],[41.955,35.423],[39.814,36.881],[40.081,36.089],[40.331,35.919],[40.596000000000004,35.738],[40.871,35.551],[41.151,35.36],[41.431000000000004,35.169],[41.706,34.982]],"i":[[-0.17200000000000415,0.11699999999999733],[0.09500000000000597,-0.2600000000000051],[0.7139999999999986,-0.4859999999999971],[-0.08400000000000318,0.2680000000000007],[-0.07500000000000284,0.05100000000000193],[-0.07900000000000063,0.054999999999999716],[-0.08200000000000074,0.055999999999997385],[-0.08400000000000318,0.05700000000000216],[-0.08400000000000318,0.05700000000000216],[-0.08200000000000074,0.055999999999997385]],"o":[[-0.08299999999999841,0.2680000000000007],[-0.7139999999999986,0.4859999999999971],[0.0940000000000012,-0.259999999999998],[0.07500000000000284,-0.05100000000000193],[0.0799999999999983,-0.054000000000002046],[0.08299999999999841,-0.055999999999997385],[0.08400000000000318,-0.05700000000000216],[0.08400000000000318,-0.05700000000000216],[0.08299999999999841,-0.055999999999997385],[0.17199999999999704,-0.11699999999999733]]}}},{"ty":"st","o":{"a":0,"k":0},"w":{"a":0,"k":0},"c":{"a":0,"k":[0,0,0,0]},"lc":3,"lj":1,"ml":1},{"ty":"fl","o":{"a":0,"k":100},"r":1,"c":{"a":0,"k":[0.9294117647058824,0.8627450980392157,0.23137254901960785,1]}},{"ty":"tr","o":{"a":0,"k":100},"a":{"a":0,"k":[0,0]},"s":{"a":0,"k":[100,100]},"p":{"a":0,"k":[0,0]},"r":{"a":0,"k":0}}]},{"ty":"gr","nm":"Flying coin04 shape group","it":[{"ty":"sh","ks":{"a":0,"k":{"c":true,"v":[[41.955,35.423],[40.449,38.525],[38.308,39.983],[39.814,36.881],[40.329,36.53],[40.884,36.152],[41.164,35.961],[41.439,35.774],[41.704,35.593]],"i":[[-0.07499999999999574,0.05099999999999483],[0.5949999999999989,-0.9510000000000005],[0.7139999999999986,-0.4859999999999971],[-0.40500000000000114,1.1139999999999972],[-0.17199999999999704,0.11699999999999733],[-0.18500000000000227,0.12599999999999767],[-0.08400000000000318,0.05700000000000216],[-0.08200000000000074,0.055999999999997385],[-0.07900000000000063,0.054999999999999716]],"o":[[-0.40500000000000114,1.115000000000002],[-0.7139999999999986,0.4859999999999971],[0.5959999999999965,-0.9510000000000005],[0.17199999999999704,-0.11699999999999733],[0.18500000000000227,-0.12599999999999767],[0.08400000000000318,-0.05700000000000216],[0.08299999999999841,-0.055999999999997385],[0.0799999999999983,-0.054000000000002046],[0.07600000000000051,-0.05100000000000193]]}}},{"ty":"st","o":{"a":0,"k":0},"w":{"a":0,"k":0},"c":{"a":0,"k":[0,0,0,0]},"lc":3,"lj":1,"ml":1},{"ty":"fl","o":{"a":0,"k":100},"r":1,"c":{"a":0,"k":[0.9294117647058824,0.8627450980392157,0.23137254901960785,1]}},{"ty":"tr","o":{"a":0,"k":100},"a":{"a":0,"k":[0,0]},"s":{"a":0,"k":[100,100]},"p":{"a":0,"k":[0,0]},"r":{"a":0,"k":0}}]},{"ty":"gr","nm":"Flying coin04 shape group","it":[{"ty":"sh","ks":{"a":0,"k":{"c":true,"v":[[41.927,32.07],[39.685,37.974000000000004],[37.545,39.432],[39.787,33.529],[40.037,33.359],[40.302,33.178000000000004],[40.577,32.99100000000001],[40.857,32.800000000000004],[41.137,32.609],[41.412,32.422000000000004],[41.677,32.24100000000001]],"i":[[-0.07500000000000284,0.05100000000000193],[1.0679999999999978,-1.6950000000000074],[0.713000000000001,-0.4859999999999971],[-0.40399999999999636,2.2239999999999966],[-0.07500000000000284,0.05100000000000193],[-0.07900000000000063,0.054999999999999716],[-0.08200000000000074,0.055999999999997385],[-0.08400000000000318,0.05700000000000216],[-0.08400000000000318,0.05700000000000216],[-0.08200000000000074,0.055999999999997385],[-0.07900000000000063,0.054999999999999716]],"o":[[-0.40400000000000347,2.2250000000000014],[-0.7139999999999986,0.4859999999999971],[1.0679999999999978,-1.6950000000000003],[0.07500000000000284,-0.05100000000000193],[0.0799999999999983,-0.054000000000002046],[0.08299999999999841,-0.055999999999997385],[0.08400000000000318,-0.05700000000000216],[0.08400000000000318,-0.05700000000000216],[0.08299999999999841,-0.055999999999997385],[0.0799999999999983,-0.054000000000002046],[0.07500000000000284,-0.05200000000000671]]}}},{"ty":"st","o":{"a":0,"k":0},"w":{"a":0,"k":0},"c":{"a":0,"k":[0,0,0,0]},"lc":3,"lj":1,"ml":1},{"ty":"fl","o":{"a":0,"k":100},"r":1,"c":{"a":0,"k":[0.996078431372549,0.9568627450980393,0.5529411764705883,1]}},{"ty":"tr","o":{"a":0,"k":100},"a":{"a":0,"k":[0,0]},"s":{"a":0,"k":[100,100]},"p":{"a":0,"k":[0,0]},"r":{"a":0,"k":0}}]},{"ty":"gr","nm":"Flying coin04 shape group","it":[{"ty":"sh","ks":{"a":0,"k":{"c":true,"v":[[16.827,0.76],[16.888,0.756],[14.747000000000002,2.214],[14.686000000000002,2.218],[15.570000000000002,1.616],[15.717000000000002,1.516],[15.873000000000003,1.41],[16.034000000000002,1.2999999999999998],[16.198000000000004,1.1879999999999997],[16.280000000000005,1.1319999999999997],[16.443000000000005,1.0209999999999997],[16.602000000000004,0.9129999999999997],[16.754000000000005,0.8099999999999997]],"i":[[-0.02400000000000091,0.009000000000000008],[-0.021000000000000796,0.0020000000000000018],[0.7140000000000004,-0.486],[0.021000000000000796,-0.002000000000000224],[-0.2940000000000005,0.19999999999999973],[-0.04400000000000048,0.030000000000000027],[-0.0470000000000006,0.03200000000000003],[-0.04800000000000004,0.03300000000000014],[-0.04900000000000304,0.03400000000000003],[-0.02400000000000091,0.017000000000000126],[-0.04899999999999949,0.03299999999999992],[-0.047999999999998266,0.03200000000000003],[-0.045999999999999375,0.031000000000000028]],"o":[[0.019999999999999574,-0.0010000000000000009],[-0.7139999999999986,0.486],[-0.019999999999999574,0.0009999999999998899],[0.29499999999999993,-0.20100000000000007],[0.04400000000000048,-0.030000000000000027],[0.0470000000000006,-0.03200000000000003],[0.04800000000000004,-0.03299999999999992],[0.04899999999999949,-0.03400000000000003],[0.02499999999999858,-0.016999999999999904],[0.04899999999999949,-0.03299999999999992],[0.047999999999998266,-0.03200000000000003],[0.045000000000001705,-0.031000000000000028],[0.022999999999996135,-0.01599999999999968]]}}},{"ty":"st","o":{"a":0,"k":0},"w":{"a":0,"k":0},"c":{"a":0,"k":[0,0,0,0]},"lc":3,"lj":1,"ml":1},{"ty":"fl","o":{"a":0,"k":100},"r":1,"c":{"a":0,"k":[0.9294117647058824,0.8627450980392157,0.23137254901960785,1]}},{"ty":"tr","o":{"a":0,"k":100},"a":{"a":0,"k":[0,0]},"s":{"a":0,"k":[100,100]},"p":{"a":0,"k":[0,0]},"r":{"a":0,"k":0}}]},{"ty":"gr","nm":"Flying coin04 shape group","it":[{"ty":"sh","ks":{"a":0,"k":{"c":true,"v":[[21.061,12.211],[22.1,13.666],[22.053,15.3],[22.046,15.4],[24.962,17.611],[25.067,19.560000000000002],[24.128,19.718000000000004],[23.427,19.261000000000003],[21.185,17.78],[18.764,19.347],[25.853,30.132],[21.516000000000002,34.086],[21.465000000000003,35.881],[20.361000000000004,36.689],[19.322000000000003,35.226],[19.371000000000002,33.515],[15.770000000000003,31.045],[15.428000000000003,29.072000000000003],[15.484000000000002,29.008000000000003],[16.535,28.729000000000003],[17.152,29.112000000000002],[20.177,31.101000000000003],[22.846,29.448000000000004],[15.767,18.592000000000006],[19.917,14.796000000000006],[19.912000000000003,14.645000000000007],[19.959000000000003,13.010000000000007]],"i":[[-0.593,-0.18200000000000038],[0.01799999999999713,-0.620000000000001],[0,0],[0.0030000000000001137,-0.032999999999999474],[-0.7880000000000003,-0.9130000000000003],[0.48799999999999955,-0.4190000000000005],[0.34299999999999997,0.10500000000000043],[0.20899999999999963,0.2270000000000003],[0.9120000000000026,0.27800000000000225],[0.04100000000000037,-1.4579999999999984],[0.16599999999999682,-5.797000000000001],[2.689,0.3050000000000068],[0,0],[0.593,0.18099999999999739],[-0.01799999999999713,0.6280000000000001],[0,0],[1.0730000000000004,1.064],[-0.4059999999999988,0.509999999999998],[0,0],[-0.4029999999999987,-0.12399999999999878],[-0.18900000000000006,-0.18999999999999773],[-1.0949999999999989,-0.33500000000000085],[-0.04400000000000048,1.5299999999999976],[-0.15399999999999991,5.3629999999999995],[-2.4650000000000034,-0.2920000000000016],[-0.0020000000000024443,0.049999999999998934],[0,0]],"o":[[0.593,0.18099999999999916],[0,0],[-0.0010000000000012221,0.034000000000000696],[1.1930000000000014,0.5289999999999999],[0.5489999999999995,0.6310000000000002],[-0.2510000000000012,0.21600000000000108],[-0.2469999999999999,-0.07499999999999929],[-0.6539999999999999,-0.7119999999999997],[-1.4740000000000002,-0.4510000000000005],[-0.09799999999999898,3.437999999999999],[-0.0779999999999994,2.7170000000000023],[0,0],[-0.018000000000000682,0.6280000000000001],[-0.593,-0.18099999999999739],[0,0],[-1.222999999999999,-0.517000000000003],[-0.5809999999999995,-0.5839999999999996],[0,0],[0.24399999999999977,-0.3069999999999986],[0.21399999999999864,0.06599999999999895],[0.9460000000000015,0.9469999999999992],[1.754999999999999,0.536999999999999],[0.10800000000000054,-3.776],[0.07699999999999996,-2.683],[-0.004999999999999005,-0.05000000000000071],[0,0],[0.015999999999998238,-0.6200000000000063]]}}},{"ty":"st","o":{"a":0,"k":0},"w":{"a":0,"k":0},"c":{"a":0,"k":[0,0,0,0]},"lc":3,"lj":1,"ml":1},{"ty":"fl","o":{"a":0,"k":100},"r":1,"c":{"a":0,"k":[0.996078431372549,0.9568627450980393,0.5529411764705883,1]}},{"ty":"tr","o":{"a":0,"k":100},"a":{"a":0,"k":[0,0]},"s":{"a":0,"k":[100,100]},"p":{"a":0,"k":[0,0]},"r":{"a":0,"k":0}}]},{"ty":"gr","nm":"Flying coin04 shape group","it":[{"ty":"sh","ks":{"a":0,"k":{"c":true,"v":[[21.061,12.211],[23.201999999999998,10.753],[24.241,12.208],[22.1,13.665]],"i":[[0.5919999999999987,0.18099999999999916],[0,0],[0.01799999999999713,-0.6199999999999992],[0,0]],"o":[[0,0],[0.593,0.18099999999999916],[0,0],[0.01799999999999713,-0.6199999999999992]]}}},{"ty":"st","o":{"a":0,"k":0},"w":{"a":0,"k":0},"c":{"a":0,"k":[0,0,0,0]},"lc":3,"lj":1,"ml":1},{"ty":"fl","o":{"a":0,"k":100},"r":1,"c":{"a":0,"k":[0.996078431372549,0.9568627450980393,0.5529411764705883,1]}},{"ty":"tr","o":{"a":0,"k":100},"a":{"a":0,"k":[0,0]},"s":{"a":0,"k":[100,100]},"p":{"a":0,"k":[0,0]},"r":{"a":0,"k":0}}]},{"ty":"gr","nm":"Flying coin04 shape group","it":[{"ty":"sh","ks":{"a":0,"k":{"c":true,"v":[[16.827,0.76],[14.686000000000002,2.218],[13.647000000000002,2.316],[13.861000000000002,2.17],[14.088000000000003,2.016],[14.323000000000002,1.856],[14.562000000000003,1.693],[15.477000000000004,1.07],[15.513000000000003,1.0450000000000002],[15.551000000000004,1.0190000000000001],[15.591000000000003,0.9920000000000001],[15.632000000000003,0.9640000000000001],[15.713000000000003,0.909],[15.751000000000003,0.883],[15.787000000000003,0.858]],"i":[[-0.3500000000000014,0.02200000000000002],[0.7140000000000004,-0.486],[0.34299999999999997,-0.04400000000000004],[-0.06400000000000006,0.04400000000000004],[-0.06799999999999962,0.04599999999999982],[-0.07000000000000028,0.04799999999999982],[-0.0710000000000015,0.04899999999999993],[-0.3050000000000015,0.20700000000000007],[-0.010999999999999233,0.008000000000000007],[-0.011000000000001009,0.008000000000000007],[-0.011999999999998678,0.008000000000000118],[-0.0129999999999999,0.009000000000000008],[-0.026999999999999247,0.018000000000000016],[-0.011000000000001009,0.008000000000000007],[-0.010999999999999233,0.008000000000000007]],"o":[[-0.7139999999999986,0.486],[-0.34999999999999964,0.021999999999999797],[0.06400000000000006,-0.04400000000000004],[0.06799999999999962,-0.04599999999999982],[0.07099999999999973,-0.04800000000000004],[0.07199999999999918,-0.04899999999999993],[0.3049999999999997,-0.20799999999999996],[0.010999999999999233,-0.006999999999999895],[0.012000000000000455,-0.008000000000000007],[0.012000000000000455,-0.008000000000000007],[0.012000000000000455,-0.008000000000000007],[0.026999999999999247,-0.018000000000000016],[0.012000000000000455,-0.008000000000000007],[0.010999999999999233,-0.007000000000000006],[0.34399999999999764,-0.04400000000000004]]}}},{"ty":"st","o":{"a":0,"k":0},"w":{"a":0,"k":0},"c":{"a":0,"k":[0,0,0,0]},"lc":3,"lj":1,"ml":1},{"ty":"fl","o":{"a":0,"k":100},"r":1,"c":{"a":0,"k":[0.9294117647058824,0.8627450980392157,0.23137254901960785,1]}},{"ty":"tr","o":{"a":0,"k":100},"a":{"a":0,"k":[0,0]},"s":{"a":0,"k":[100,100]},"p":{"a":0,"k":[0,0]},"r":{"a":0,"k":0}}]},{"ty":"gr","nm":"Flying coin04 shape group","it":[{"ty":"sh","ks":{"a":0,"k":{"c":true,"v":[[27.131,18.16],[24.990000000000002,19.618],[25.066000000000003,19.558999999999997],[24.961000000000002,17.609999999999996],[22.045,15.398999999999996],[24.186,13.940999999999995],[27.102,16.151999999999994],[27.207,18.100999999999996]],"i":[[0.0259999999999998,-0.018000000000000682],[0,0],[-0.02400000000000091,0.022000000000002018],[0.5489999999999995,0.6310000000000002],[1.1930000000000014,0.5289999999999999],[0,0],[-0.7880000000000003,-0.9129999999999985],[0.48799999999999955,-0.4190000000000005]],"o":[[0,0],[0.0259999999999998,-0.018000000000000682],[0.4869999999999983,-0.4200000000000017],[-0.786999999999999,-0.9130000000000003],[0,0],[1.1930000000000014,0.5289999999999999],[0.5489999999999995,0.6310000000000002],[-0.02400000000000091,0.02200000000000557]]}}},{"ty":"st","o":{"a":0,"k":0},"w":{"a":0,"k":0},"c":{"a":0,"k":[0,0,0,0]},"lc":3,"lj":1,"ml":1},{"ty":"fl","o":{"a":0,"k":100},"r":1,"c":{"a":0,"k":[0.996078431372549,0.9568627450980393,0.5529411764705883,1]}},{"ty":"tr","o":{"a":0,"k":100},"a":{"a":0,"k":[0,0]},"s":{"a":0,"k":[100,100]},"p":{"a":0,"k":[0,0]},"r":{"a":0,"k":0}}]},{"ty":"gr","nm":"Flying coin04 shape group","it":[{"ty":"sh","ks":{"a":0,"k":{"c":true,"v":[[14.868,3.38],[17.009,1.922],[17.587,2.546],[15.446,4.004]],"i":[[0.25900000000000034,0.07900000000000018],[0,0],[-0.08099999999999952,-0.29800000000000004],[0,0]],"o":[[0,0],[0.2579999999999991,0.07899999999999996],[0,0],[-0.08099999999999952,-0.2989999999999995]]}}},{"ty":"st","o":{"a":0,"k":0},"w":{"a":0,"k":0},"c":{"a":0,"k":[0,0,0,0]},"lc":3,"lj":1,"ml":1},{"ty":"fl","o":{"a":0,"k":100},"r":1,"c":{"a":0,"k":[0.9254901960784314,0.8666666666666667,0.2901960784313726,1]}},{"ty":"tr","o":{"a":0,"k":100},"a":{"a":0,"k":[0,0]},"s":{"a":0,"k":[100,100]},"p":{"a":0,"k":[0,0]},"r":{"a":0,"k":0}}]},{"ty":"gr","nm":"Flying coin04 shape group","it":[{"ty":"sh","ks":{"a":0,"k":{"c":true,"v":[[14.868,3.38],[15.446,4.004],[16.289,6.958],[15.892000000000001,7.706],[15.668000000000001,7.680000000000001],[15.090000000000002,7.055000000000001],[14.247000000000002,4.101000000000001],[14.652000000000001,3.3560000000000008]],"i":[[-0.07099999999999973,-0.021999999999999797],[-0.08099999999999952,-0.2979999999999996],[0,0],[0.33000000000000007,-0.028999999999999915],[0.07399999999999984,0.02200000000000024],[0.08099999999999952,0.30299999999999994],[0,0],[-0.3379999999999992,0.026000000000000245]],"o":[[0.2580000000000009,0.07900000000000018],[0,0],[0.11100000000000065,0.391],[-0.07499999999999929,0.006000000000000227],[-0.2599999999999998,-0.08000000000000007],[0,0],[-0.1120000000000001,-0.383],[0.07199999999999918,-0.007000000000000561]]}}},{"ty":"st","o":{"a":0,"k":0},"w":{"a":0,"k":0},"c":{"a":0,"k":[0,0,0,0]},"lc":3,"lj":1,"ml":1},{"ty":"fl","o":{"a":0,"k":100},"r":1,"c":{"a":0,"k":[0.9254901960784314,0.8666666666666667,0.2901960784313726,1]}},{"ty":"tr","o":{"a":0,"k":100},"a":{"a":0,"k":[0,0]},"s":{"a":0,"k":[100,100]},"p":{"a":0,"k":[0,0]},"r":{"a":0,"k":0}}]},{"ty":"gr","nm":"Flying coin04 shape group","it":[{"ty":"sh","ks":{"a":0,"k":{"c":true,"v":[[22.1,13.665],[24.241,12.207],[24.194,13.842],[22.053,15.3]],"i":[[0,0],[0,0],[0,0],[0,0]],"o":[[0,0],[0,0],[0,0],[0,0]]}}},{"ty":"st","o":{"a":0,"k":0},"w":{"a":0,"k":0},"c":{"a":0,"k":[0,0,0,0]},"lc":3,"lj":1,"ml":1},{"ty":"fl","o":{"a":0,"k":100},"r":1,"c":{"a":0,"k":[0.996078431372549,0.9568627450980393,0.5529411764705883,1]}},{"ty":"tr","o":{"a":0,"k":100},"a":{"a":0,"k":[0,0]},"s":{"a":0,"k":[100,100]},"p":{"a":0,"k":[0,0]},"r":{"a":0,"k":0}}]},{"ty":"gr","nm":"Flying coin04 shape group","it":[{"ty":"sh","ks":{"a":0,"k":{"c":true,"v":[[20.312,12.297],[22.453000000000003,10.839],[23.202,10.753],[21.061,12.211]],"i":[[0.19699999999999918,-0.1349999999999998],[0,0],[-0.28699999999999903,-0.08799999999999919],[0,0]],"o":[[0,0],[0.1980000000000004,-0.1349999999999998],[0,0],[-0.28800000000000026,-0.08800000000000097]]}}},{"ty":"st","o":{"a":0,"k":0},"w":{"a":0,"k":0},"c":{"a":0,"k":[0,0,0,0]},"lc":3,"lj":1,"ml":1},{"ty":"fl","o":{"a":0,"k":100},"r":1,"c":{"a":0,"k":[0.996078431372549,0.9568627450980393,0.5529411764705883,1]}},{"ty":"tr","o":{"a":0,"k":100},"a":{"a":0,"k":[0,0]},"s":{"a":0,"k":[100,100]},"p":{"a":0,"k":[0,0]},"r":{"a":0,"k":0}}]},{"ty":"gr","nm":"Flying coin04 shape group","it":[{"ty":"sh","ks":{"a":0,"k":{"c":true,"v":[[15.446,4.004],[17.587,2.546],[18.43,5.5],[16.29,6.959]],"i":[[0,0],[0,0],[0,0],[0,0]],"o":[[0,0],[0,0],[0,0],[0,0]]}}},{"ty":"st","o":{"a":0,"k":0},"w":{"a":0,"k":0},"c":{"a":0,"k":[0,0,0,0]},"lc":3,"lj":1,"ml":1},{"ty":"fl","o":{"a":0,"k":100},"r":1,"c":{"a":0,"k":[0.9254901960784314,0.8666666666666667,0.2901960784313726,1]}},{"ty":"tr","o":{"a":0,"k":100},"a":{"a":0,"k":[0,0]},"s":{"a":0,"k":[100,100]},"p":{"a":0,"k":[0,0]},"r":{"a":0,"k":0}}]},{"ty":"gr","nm":"Flying coin04 shape group","it":[{"ty":"sh","ks":{"a":0,"k":{"c":true,"v":[[14.425,3.433],[16.566000000000003,1.9749999999999999],[16.793000000000003,1.8969999999999998],[17.009000000000004,1.9219999999999997],[14.868,3.38],[14.652000000000001,3.355]],"i":[[0.06400000000000006,-0.04400000000000004],[0,0],[-0.08699999999999974,0.007000000000000117],[-0.07200000000000273,-0.02200000000000002],[0,0],[0.07199999999999918,-0.006000000000000227]],"o":[[0,0],[0.06400000000000006,-0.04299999999999993],[0.07199999999999918,-0.006000000000000005],[0,0],[-0.07099999999999973,-0.021999999999999797],[-0.08700000000000152,0.007000000000000117]]}}},{"ty":"st","o":{"a":0,"k":0},"w":{"a":0,"k":0},"c":{"a":0,"k":[0,0,0,0]},"lc":3,"lj":1,"ml":1},{"ty":"fl","o":{"a":0,"k":100},"r":1,"c":{"a":0,"k":[0.9254901960784314,0.8666666666666667,0.2901960784313726,1]}},{"ty":"tr","o":{"a":0,"k":100},"a":{"a":0,"k":[0,0]},"s":{"a":0,"k":[100,100]},"p":{"a":0,"k":[0,0]},"r":{"a":0,"k":0}}]},{"ty":"gr","nm":"Flying coin04 shape group","it":[{"ty":"sh","ks":{"a":0,"k":{"c":true,"v":[[16.566,1.975],[16.389,2.6430000000000002],[14.248,4.101],[14.424999999999999,3.433]],"i":[[-0.6419999999999995,0.43699999999999983],[-0.08300000000000196,-0.28500000000000014],[0,0],[-0.18299999999999983,0.125]],"o":[[-0.18299999999999983,0.125],[0,0],[-0.08300000000000018,-0.28500000000000014],[0.6420000000000012,-0.4379999999999997]]}}},{"ty":"st","o":{"a":0,"k":0},"w":{"a":0,"k":0},"c":{"a":0,"k":[0,0,0,0]},"lc":3,"lj":1,"ml":1},{"ty":"fl","o":{"a":0,"k":100},"r":1,"c":{"a":0,"k":[0.9921568627450981,0.9725490196078431,0.7568627450980392,1]}},{"ty":"tr","o":{"a":0,"k":100},"a":{"a":0,"k":[0,0]},"s":{"a":0,"k":[100,100]},"p":{"a":0,"k":[0,0]},"r":{"a":0,"k":0}}]},{"ty":"gr","nm":"Flying coin04 shape group","it":[{"ty":"sh","ks":{"a":0,"k":{"c":true,"v":[[15.789,0.858],[13.648,2.316],[10.586,3.0279999999999996],[10.836,2.8579999999999997],[10.967,2.7689999999999997],[11.238000000000001,2.5849999999999995],[12.212000000000002,1.9219999999999995],[12.477000000000002,1.7409999999999994],[12.727000000000002,1.5709999999999995]],"i":[[-1.064,0.135],[0.7140000000000004,-0.48599999999999977],[0.9739999999999984,-0.33699999999999974],[-0.07499999999999929,0.051000000000000156],[-0.0389999999999997,0.027000000000000135],[-0.0810000000000013,0.05500000000000016],[-0.32500000000000107,0.22099999999999986],[-0.07900000000000063,0.05499999999999994],[-0.07499999999999929,0.050999999999999934]],"o":[[-0.7140000000000004,0.4859999999999999],[-1.064,0.1349999999999998],[0.07499999999999929,-0.051000000000000156],[0.0389999999999997,-0.027000000000000135],[0.08099999999999952,-0.05500000000000016],[0.3249999999999993,-0.22100000000000009],[0.08000000000000007,-0.05400000000000005],[0.07499999999999929,-0.050999999999999934],[0.9739999999999984,-0.3389999999999995]]}}},{"ty":"st","o":{"a":0,"k":0},"w":{"a":0,"k":0},"c":{"a":0,"k":[0,0,0,0]},"lc":3,"lj":1,"ml":1},{"ty":"fl","o":{"a":0,"k":100},"r":1,"c":{"a":0,"k":[0.9294117647058824,0.8627450980392157,0.23137254901960785,1]}},{"ty":"tr","o":{"a":0,"k":100},"a":{"a":0,"k":[0,0]},"s":{"a":0,"k":[100,100]},"p":{"a":0,"k":[0,0]},"r":{"a":0,"k":0}}]},{"ty":"gr","nm":"Flying coin04 shape group","it":[{"ty":"sh","ks":{"a":0,"k":{"c":true,"v":[[22.452,10.839],[22.097,11.552],[19.956000000000003,13.01],[20.311000000000003,12.297]],"i":[[-0.642000000000003,0.4369999999999994],[0.009000000000000341,-0.31899999999999906],[0,0],[-0.21000000000000085,0.1429999999999989]],"o":[[-0.21000000000000085,0.14300000000000068],[0,0],[0.009000000000000341,-0.31900000000000084],[0.6429999999999971,-0.4380000000000006]]}}},{"ty":"st","o":{"a":0,"k":0},"w":{"a":0,"k":0},"c":{"a":0,"k":[0,0,0,0]},"lc":3,"lj":1,"ml":1},{"ty":"fl","o":{"a":0,"k":100},"r":1,"c":{"a":0,"k":[0.9294117647058824,0.8627450980392157,0.23137254901960785,1]}},{"ty":"tr","o":{"a":0,"k":100},"a":{"a":0,"k":[0,0]},"s":{"a":0,"k":[100,100]},"p":{"a":0,"k":[0,0]},"r":{"a":0,"k":0}}]},{"ty":"gr","nm":"Flying coin04 shape group","it":[{"ty":"sh","ks":{"a":0,"k":{"c":true,"v":[[22.053,15.3],[24.194000000000003,13.842],[24.187,13.942],[22.046,15.4]],"i":[[-0.0010000000000012221,0.03399999999999892],[0,0],[0.0030000000000001137,-0.032999999999999474],[0,0]],"o":[[0,0],[-0.0010000000000012221,0.034000000000000696],[0,0],[0.004000000000001336,-0.032999999999999474]]}}},{"ty":"st","o":{"a":0,"k":0},"w":{"a":0,"k":0},"c":{"a":0,"k":[0,0,0,0]},"lc":3,"lj":1,"ml":1},{"ty":"fl","o":{"a":0,"k":100},"r":1,"c":{"a":0,"k":[0.996078431372549,0.9568627450980393,0.5529411764705883,1]}},{"ty":"tr","o":{"a":0,"k":100},"a":{"a":0,"k":[0,0]},"s":{"a":0,"k":[100,100]},"p":{"a":0,"k":[0,0]},"r":{"a":0,"k":0}}]},{"ty":"gr","nm":"Flying coin04 shape group","it":[{"ty":"sh","ks":{"a":0,"k":{"c":true,"v":[[26.269,18.26],[27.130999999999997,18.16],[24.989999999999995,19.618],[24.127999999999997,19.718],[23.505999999999997,19.342],[23.755999999999997,19.171999999999997],[24.020999999999997,18.990999999999996],[24.295999999999996,18.803999999999995],[24.575999999999997,18.612999999999996],[24.855999999999998,18.421999999999997],[25.130999999999997,18.234999999999996],[25.395999999999997,18.053999999999995],[25.645999999999997,17.883999999999993]],"i":[[-0.21699999999999875,-0.0660000000000025],[-0.24199999999999733,0.1650000000000027],[0,0],[0.3089999999999975,0.09399999999999764],[0.19000000000000128,0.18299999999999983],[-0.07499999999999929,0.05100000000000193],[-0.07900000000000063,0.054999999999999716],[-0.08199999999999719,0.05600000000000094],[-0.08399999999999963,0.05699999999999861],[-0.08399999999999963,0.05699999999999861],[-0.08199999999999719,0.05600000000000094],[-0.07900000000000063,0.054999999999999716],[-0.07499999999999929,0.05100000000000193]],"o":[[0.30900000000000105,0.0940000000000012],[0,0],[-0.24200000000000088,0.16499999999999915],[-0.21600000000000108,-0.06599999999999895],[0.07499999999999929,-0.05099999999999838],[0.0799999999999983,-0.053999999999998494],[0.08299999999999841,-0.05600000000000094],[0.08399999999999963,-0.05699999999999861],[0.08399999999999963,-0.05699999999999861],[0.08299999999999841,-0.05600000000000094],[0.0799999999999983,-0.053999999999998494],[0.07499999999999929,-0.05099999999999838],[0.1910000000000025,0.18300000000000693]]}}},{"ty":"st","o":{"a":0,"k":0},"w":{"a":0,"k":0},"c":{"a":0,"k":[0,0,0,0]},"lc":3,"lj":1,"ml":1},{"ty":"fl","o":{"a":0,"k":100},"r":1,"c":{"a":0,"k":[0.9294117647058824,0.8627450980392157,0.23137254901960785,1]}},{"ty":"tr","o":{"a":0,"k":100},"a":{"a":0,"k":[0,0]},"s":{"a":0,"k":[100,100]},"p":{"a":0,"k":[0,0]},"r":{"a":0,"k":0}}]},{"ty":"gr","nm":"Flying coin04 shape group","it":[{"ty":"sh","ks":{"a":0,"k":{"c":true,"v":[[18.254,6.172],[16.113,7.63],[16.288999999999998,6.959],[18.43,5.5]],"i":[[0.1819999999999986,-0.12399999999999967],[0,0],[0.08300000000000196,0.29100000000000037],[0,0]],"o":[[0,0],[0.1819999999999986,-0.12399999999999967],[0,0],[0.08300000000000196,0.2919999999999998]]}}},{"ty":"st","o":{"a":0,"k":0},"w":{"a":0,"k":0},"c":{"a":0,"k":[0,0,0,0]},"lc":3,"lj":1,"ml":1},{"ty":"fl","o":{"a":0,"k":100},"r":1,"c":{"a":0,"k":[0.9254901960784314,0.8666666666666667,0.2901960784313726,1]}},{"ty":"tr","o":{"a":0,"k":100},"a":{"a":0,"k":[0,0]},"s":{"a":0,"k":[100,100]},"p":{"a":0,"k":[0,0]},"r":{"a":0,"k":0}}]},{"ty":"gr","nm":"Flying coin04 shape group","it":[{"ty":"sh","ks":{"a":0,"k":{"c":true,"v":[[14.248,4.101],[16.388,2.642],[17.232,5.597],[15.091,7.055]],"i":[[0,0],[0,0],[0,0],[0,0]],"o":[[0,0],[0,0],[0,0],[0,0]]}}},{"ty":"st","o":{"a":0,"k":0},"w":{"a":0,"k":0},"c":{"a":0,"k":[0,0,0,0]},"lc":3,"lj":1,"ml":1},{"ty":"fl","o":{"a":0,"k":100},"r":1,"c":{"a":0,"k":[0.9921568627450981,0.9725490196078431,0.7568627450980392,1]}},{"ty":"tr","o":{"a":0,"k":100},"a":{"a":0,"k":[0,0]},"s":{"a":0,"k":[100,100]},"p":{"a":0,"k":[0,0]},"r":{"a":0,"k":0}}]},{"ty":"gr","nm":"Flying coin04 shape group","it":[{"ty":"sh","ks":{"a":0,"k":{"c":true,"v":[[19.957,13.01],[22.098,11.552],[22.051,13.187],[19.91,14.645]],"i":[[0,0],[0,0],[0,0],[0,0]],"o":[[0,0],[0,0],[0,0],[0,0]]}}},{"ty":"st","o":{"a":0,"k":0},"w":{"a":0,"k":0},"c":{"a":0,"k":[0,0,0,0]},"lc":3,"lj":1,"ml":1},{"ty":"fl","o":{"a":0,"k":100},"r":1,"c":{"a":0,"k":[0.9294117647058824,0.8627450980392157,0.23137254901960785,1]}},{"ty":"tr","o":{"a":0,"k":100},"a":{"a":0,"k":[0,0]},"s":{"a":0,"k":[100,100]},"p":{"a":0,"k":[0,0]},"r":{"a":0,"k":0}}]},{"ty":"gr","nm":"Flying coin04 shape group","it":[{"ty":"sh","ks":{"a":0,"k":{"c":true,"v":[[40.289,38.775],[40.252,38.8],[38.148,40.233],[38.308,39.983],[38.558,39.812999999999995],[38.823,39.632],[39.098,39.445],[39.378,39.254],[40.448,38.525]],"i":[[0.054000000000002046,-0.08299999999999841],[0.01099999999999568,-0.006999999999997897],[0.7010000000000005,-0.47800000000000153],[-0.05299999999999727,0.08400000000000318],[-0.07500000000000284,0.05100000000000193],[-0.07900000000000063,0.054999999999999716],[-0.08200000000000074,0.055999999999997385],[-0.08400000000000318,0.05700000000000216],[-0.35600000000000165,0.2430000000000021]],"o":[[-0.00999999999999801,0.00999999999999801],[-0.7010000000000005,0.47800000000000153],[0.054000000000002046,-0.08299999999999841],[0.07500000000000284,-0.05100000000000193],[0.0799999999999983,-0.054000000000002046],[0.08299999999999841,-0.055999999999997385],[0.08400000000000318,-0.05700000000000216],[0.3569999999999993,-0.2430000000000021],[-0.05100000000000193,0.08400000000000318]]}}},{"ty":"st","o":{"a":0,"k":0},"w":{"a":0,"k":0},"c":{"a":0,"k":[0,0,0,0]},"lc":3,"lj":1,"ml":1},{"ty":"fl","o":{"a":0,"k":100},"r":1,"c":{"a":0,"k":[0.9294117647058824,0.8627450980392157,0.23137254901960785,1]}},{"ty":"tr","o":{"a":0,"k":100},"a":{"a":0,"k":[0,0]},"s":{"a":0,"k":[100,100]},"p":{"a":0,"k":[0,0]},"r":{"a":0,"k":0}}]},{"ty":"gr","nm":"Flying coin04 shape group","it":[{"ty":"sh","ks":{"a":0,"k":{"c":true,"v":[[18.033,6.248],[18.254,6.171],[16.113,7.63],[15.892,7.707]],"i":[[-0.7320000000000029,0.2610000000000001],[-0.062000000000001165,0.04300000000000015],[0,0],[0.08399999999999963,-0.008000000000000007]],"o":[[0.08399999999999963,-0.006999999999999673],[0,0],[-0.062000000000001165,0.041999999999999815],[0.6430000000000007,-0.4379999999999997]]}}},{"ty":"st","o":{"a":0,"k":0},"w":{"a":0,"k":0},"c":{"a":0,"k":[0,0,0,0]},"lc":3,"lj":1,"ml":1},{"ty":"fl","o":{"a":0,"k":100},"r":1,"c":{"a":0,"k":[0.9921568627450981,0.9725490196078431,0.7568627450980392,1]}},{"ty":"tr","o":{"a":0,"k":100},"a":{"a":0,"k":[0,0]},"s":{"a":0,"k":[100,100]},"p":{"a":0,"k":[0,0]},"r":{"a":0,"k":0}}]},{"ty":"gr","nm":"Flying coin04 shape group","it":[{"ty":"sh","ks":{"a":0,"k":{"c":true,"v":[[39.757,39.539],[39.583,39.657000000000004],[39.399,39.782000000000004],[39.208,39.912000000000006],[39.013,40.04500000000001],[38.269999999999996,40.55100000000001],[37.61599999999999,40.99600000000001],[38.147999999999996,40.23300000000001],[39.638,39.21800000000001],[40.289,38.77400000000001]],"i":[[0.1840000000000046,-0.24800000000000466],[0.0519999999999996,-0.035000000000003695],[0.054999999999999716,-0.036999999999999034],[0.05700000000000216,-0.03900000000000148],[0.0589999999999975,-0.03999999999999915],[0.2469999999999999,-0.16799999999999926],[0.21800000000000352,-0.14800000000000324],[-0.1700000000000017,0.2609999999999957],[-0.4969999999999999,0.33800000000000097],[-0.21700000000000585,0.14800000000000324]],"o":[[-0.045999999999999375,0.04399999999999693],[-0.054999999999999716,0.0379999999999967],[-0.05700000000000216,0.03900000000000148],[-0.05799999999999983,0.03999999999999915],[-0.24799999999999756,0.16899999999999693],[-0.21800000000000352,0.14800000000000324],[0.1839999999999975,-0.24799999999999756],[0.4960000000000022,-0.33800000000000097],[0.21699999999999875,-0.14800000000000324],[-0.1700000000000017,0.26199999999999335]]}}},{"ty":"st","o":{"a":0,"k":0},"w":{"a":0,"k":0},"c":{"a":0,"k":[0,0,0,0]},"lc":3,"lj":1,"ml":1},{"ty":"fl","o":{"a":0,"k":100},"r":1,"c":{"a":0,"k":[0.9294117647058824,0.8627450980392157,0.23137254901960785,1]}},{"ty":"tr","o":{"a":0,"k":100},"a":{"a":0,"k":[0,0]},"s":{"a":0,"k":[100,100]},"p":{"a":0,"k":[0,0]},"r":{"a":0,"k":0}}]},{"ty":"gr","nm":"Flying coin04 shape group","it":[{"ty":"sh","ks":{"a":0,"k":{"c":true,"v":[[39.685,37.974],[38.972,39.004],[36.831,40.461999999999996],[37.544000000000004,39.431]],"i":[[-0.6880000000000024,0.4610000000000056],[0.25099999999999767,-0.3299999999999983],[0.7139999999999986,-0.4859999999999971],[-0.22500000000000142,0.3569999999999993]],"o":[[-0.22500000000000142,0.35600000000000165],[-0.7139999999999986,0.4859999999999971],[0.25,-0.3299999999999983],[1.4529999999999959,-0.9959999999999951]]}}},{"ty":"st","o":{"a":0,"k":0},"w":{"a":0,"k":0},"c":{"a":0,"k":[0,0,0,0]},"lc":3,"lj":1,"ml":1},{"ty":"fl","o":{"a":0,"k":100},"r":1,"c":{"a":0,"k":[0.996078431372549,0.9568627450980393,0.5529411764705883,1]}},{"ty":"tr","o":{"a":0,"k":100},"a":{"a":0,"k":[0,0]},"s":{"a":0,"k":[100,100]},"p":{"a":0,"k":[0,0]},"r":{"a":0,"k":0}}]},{"ty":"gr","nm":"Flying coin04 shape group","it":[{"ty":"sh","ks":{"a":0,"k":{"c":true,"v":[[15.091,7.055],[17.232,5.5969999999999995],[17.808999999999997,6.2219999999999995],[18.032999999999998,6.247999999999999],[15.891999999999998,7.7059999999999995],[15.667999999999997,7.68]],"i":[[0.0810000000000013,0.30299999999999994],[0,0],[-0.259999999999998,-0.08000000000000007],[-0.07499999999999929,0.006000000000000227],[0,0],[0.07399999999999984,0.02200000000000024]],"o":[[0,0],[0.08099999999999952,0.30299999999999994],[0.07400000000000162,0.022999999999999687],[0,0],[-0.07499999999999929,0.006000000000000227],[-0.259999999999998,-0.08000000000000007]]}}},{"ty":"st","o":{"a":0,"k":0},"w":{"a":0,"k":0},"c":{"a":0,"k":[0,0,0,0]},"lc":3,"lj":1,"ml":1},{"ty":"fl","o":{"a":0,"k":100},"r":1,"c":{"a":0,"k":[0.9921568627450981,0.9725490196078431,0.7568627450980392,1]}},{"ty":"tr","o":{"a":0,"k":100},"a":{"a":0,"k":[0,0]},"s":{"a":0,"k":[100,100]},"p":{"a":0,"k":[0,0]},"r":{"a":0,"k":0}}]},{"ty":"gr","nm":"Flying coin04 shape group","it":[{"ty":"sh","ks":{"a":0,"k":{"c":true,"v":[[34.245,36.505],[34.558,36.693000000000005],[36.85,38.82300000000001],[37.052,39.81100000000001],[36.49,39.98100000000001],[36.178000000000004,39.79600000000001],[33.893,37.660000000000004],[33.691,36.672000000000004]],"i":[[-0.21599999999999397,-0.0660000000000025],[-0.09700000000000131,-0.09200000000000585],[0,0],[0.1840000000000046,-0.26899999999999835],[0.21999999999999886,0.06700000000000017],[0.09799999999999898,0.09100000000000108],[0,0],[-0.1840000000000046,0.26899999999999835]],"o":[[0.10799999999999699,0.03300000000000125],[0,0],[0.2989999999999995,0.2779999999999987],[-0.12400000000000233,0.18099999999999739],[-0.10699999999999932,-0.03300000000000125],[0,0],[-0.2989999999999995,-0.2779999999999987],[0.12399999999999523,-0.18000000000000682]]}}},{"ty":"st","o":{"a":0,"k":0},"w":{"a":0,"k":0},"c":{"a":0,"k":[0,0,0,0]},"lc":3,"lj":1,"ml":1},{"ty":"fl","o":{"a":0,"k":100},"r":1,"c":{"a":0,"k":[0.9254901960784314,0.8666666666666667,0.2901960784313726,1]}},{"ty":"tr","o":{"a":0,"k":100},"a":{"a":0,"k":[0,0]},"s":{"a":0,"k":[100,100]},"p":{"a":0,"k":[0,0]},"r":{"a":0,"k":0}}]},{"ty":"gr","nm":"Flying coin04 shape group","it":[{"ty":"sh","ks":{"a":0,"k":{"c":true,"v":[[25.568,17.803],[25.647000000000002,17.884],[23.506,19.342],[23.427,19.261],[21.185,17.779999999999998],[19.436999999999998,17.848],[21.577999999999996,16.39],[23.325999999999997,16.322]],"i":[[-0.6539999999999999,-0.7110000000000021],[-0.027000000000001023,-0.0259999999999998],[0.7140000000000022,-0.4859999999999971],[0.0259999999999998,0.027999999999998693],[0.9120000000000026,0.27800000000000225],[0.41600000000000037,-0.2660000000000018],[-0.7139999999999986,0.4859999999999971],[-0.7370000000000019,-0.22499999999999787]],"o":[[0.0259999999999998,0.027999999999998693],[-0.7139999999999986,0.48600000000000065],[-0.027000000000001023,-0.0259999999999998],[-0.6539999999999999,-0.7119999999999997],[-0.7369999999999983,-0.22500000000000142],[0.7139999999999986,-0.48600000000000065],[0.41600000000000037,-0.26599999999999824],[0.9120000000000026,0.2789999999999999]]}}},{"ty":"st","o":{"a":0,"k":0},"w":{"a":0,"k":0},"c":{"a":0,"k":[0,0,0,0]},"lc":3,"lj":1,"ml":1},{"ty":"fl","o":{"a":0,"k":100},"r":1,"c":{"a":0,"k":[0.9294117647058824,0.8627450980392157,0.23137254901960785,1]}},{"ty":"tr","o":{"a":0,"k":100},"a":{"a":0,"k":[0,0]},"s":{"a":0,"k":[100,100]},"p":{"a":0,"k":[0,0]},"r":{"a":0,"k":0}}]},{"ty":"gr","nm":"Flying coin04 shape group","it":[{"ty":"sh","ks":{"a":0,"k":{"c":true,"v":[[19.91,14.645],[22.051000000000002,13.187],[22.056,13.338],[19.915,14.796]],"i":[[-0.0010000000000012221,0.05000000000000071],[0,0],[-0.003999999999997783,-0.049999999999998934],[0,0]],"o":[[0,0],[-0.0010000000000012221,0.05000000000000071],[0,0],[-0.003999999999997783,-0.049999999999998934]]}}},{"ty":"st","o":{"a":0,"k":0},"w":{"a":0,"k":0},"c":{"a":0,"k":[0,0,0,0]},"lc":3,"lj":1,"ml":1},{"ty":"fl","o":{"a":0,"k":100},"r":1,"c":{"a":0,"k":[0.9294117647058824,0.8627450980392157,0.23137254901960785,1]}},{"ty":"tr","o":{"a":0,"k":100},"a":{"a":0,"k":[0,0]},"s":{"a":0,"k":[100,100]},"p":{"a":0,"k":[0,0]},"r":{"a":0,"k":0}}]},{"ty":"gr","nm":"Flying coin04 shape group","it":[{"ty":"sh","ks":{"a":0,"k":{"c":true,"v":[[17.262,15.329],[19.403,13.871],[22.057,13.338000000000001],[19.915999999999997,14.796000000000001]],"i":[[0.6900000000000013,-0.47000000000000064],[0,0],[-1.0620000000000012,-0.12600000000000122],[0,0]],"o":[[0,0],[0.6900000000000013,-0.47000000000000064],[0,0],[-1.0619999999999976,-0.12600000000000122]]}}},{"ty":"st","o":{"a":0,"k":0},"w":{"a":0,"k":0},"c":{"a":0,"k":[0,0,0,0]},"lc":3,"lj":1,"ml":1},{"ty":"fl","o":{"a":0,"k":100},"r":1,"c":{"a":0,"k":[0.996078431372549,0.9568627450980393,0.5529411764705883,1]}},{"ty":"tr","o":{"a":0,"k":100},"a":{"a":0,"k":[0,0]},"s":{"a":0,"k":[100,100]},"p":{"a":0,"k":[0,0]},"r":{"a":0,"k":0}}]},{"ty":"gr","nm":"Flying coin04 shape group","it":[{"ty":"sh","ks":{"a":0,"k":{"c":true,"v":[[39.757,39.539],[36.297999999999995,42.867000000000004],[34.157,44.325],[37.616,40.997]],"i":[[-0.7139999999999986,0.4859999999999971],[1.3170000000000002,-0.8970000000000056],[0,0],[-0.9770000000000039,1.3130000000000024]],"o":[[-0.9769999999999968,1.3130000000000024],[0,0],[1.3170000000000002,-0.8969999999999985],[0.7139999999999986,-0.4859999999999971]]}}},{"ty":"st","o":{"a":0,"k":0},"w":{"a":0,"k":0},"c":{"a":0,"k":[0,0,0,0]},"lc":3,"lj":1,"ml":1},{"ty":"fl","o":{"a":0,"k":100},"r":1,"c":{"a":0,"k":[0.9294117647058824,0.8627450980392157,0.23137254901960785,1]}},{"ty":"tr","o":{"a":0,"k":100},"a":{"a":0,"k":[0,0]},"s":{"a":0,"k":[100,100]},"p":{"a":0,"k":[0,0]},"r":{"a":0,"k":0}}]},{"ty":"gr","nm":"Flying coin04 shape group","it":[{"ty":"sh","ks":{"a":0,"k":{"c":true,"v":[[19.407,17.867],[21.548000000000002,16.409000000000002],[20.904000000000003,17.888],[27.993000000000002,28.673000000000002],[26.444000000000003,32.071000000000005],[24.303000000000004,33.529],[25.852000000000004,30.131000000000004],[18.763000000000005,19.346000000000004]],"i":[[-0.39699999999999847,0.2710000000000008],[0,0],[0.020999999999997243,-0.7109999999999985],[0.16600000000000037,-5.797000000000001],[0.9639999999999986,-0.6570000000000036],[0,0],[-0.04400000000000048,1.565999999999999],[-0.09800000000000253,3.437999999999999]],"o":[[0,0],[-0.39699999999999847,0.2710000000000008],[-0.09799999999999898,3.437999999999999],[-0.045000000000001705,1.565999999999999],[0,0],[0.9639999999999986,-0.6570000000000036],[0.16600000000000037,-5.797999999999998],[0.02099999999999369,-0.7100000000000044]]}}},{"ty":"st","o":{"a":0,"k":0},"w":{"a":0,"k":0},"c":{"a":0,"k":[0,0,0,0]},"lc":3,"lj":1,"ml":1},{"ty":"fl","o":{"a":0,"k":100},"r":1,"c":{"a":0,"k":[0.996078431372549,0.9568627450980393,0.5529411764705883,1]}},{"ty":"tr","o":{"a":0,"k":100},"a":{"a":0,"k":[0,0]},"s":{"a":0,"k":[100,100]},"p":{"a":0,"k":[0,0]},"r":{"a":0,"k":0}}]},{"ty":"gr","nm":"Flying coin04 shape group","it":[{"ty":"sh","ks":{"a":0,"k":{"c":true,"v":[[36.416,41.592],[36.324,41.653999999999996],[34.79,42.699],[34.275,43.05],[36.830999999999996,40.461999999999996],[37.080999999999996,40.291999999999994],[37.346,40.111],[37.620999999999995,39.924],[37.900999999999996,39.733],[38.181,39.541999999999994],[38.455999999999996,39.355],[38.721,39.174],[38.971,39.004]],"i":[[0.953000000000003,-0.7370000000000019],[0.027999999999998693,-0.018000000000000682],[0.5109999999999957,-0.347999999999999],[0.17199999999999704,-0.11699999999999733],[-0.7459999999999951,0.9849999999999994],[-0.07500000000000284,0.05100000000000193],[-0.07900000000000063,0.054999999999999716],[-0.08200000000000074,0.055999999999997385],[-0.08400000000000318,0.05700000000000216],[-0.08400000000000318,0.05700000000000216],[-0.08200000000000074,0.055999999999997385],[-0.07900000000000063,0.054999999999999716],[-0.07500000000000284,0.05100000000000193]],"o":[[-0.027000000000001023,0.020000000000003126],[-0.5110000000000028,0.347999999999999],[-0.17199999999999704,0.11699999999999733],[0.953000000000003,-0.7370000000000019],[0.07500000000000284,-0.05100000000000193],[0.0799999999999983,-0.054000000000002046],[0.08299999999999841,-0.055999999999997385],[0.08400000000000318,-0.05700000000000216],[0.08400000000000318,-0.05700000000000216],[0.08299999999999841,-0.055999999999997385],[0.0799999999999983,-0.054000000000002046],[0.07500000000000284,-0.05100000000000193],[-0.7449999999999974,0.9840000000000018]]}}},{"ty":"st","o":{"a":0,"k":0},"w":{"a":0,"k":0},"c":{"a":0,"k":[0,0,0,0]},"lc":3,"lj":1,"ml":1},{"ty":"fl","o":{"a":0,"k":100},"r":1,"c":{"a":0,"k":[0.996078431372549,0.9568627450980393,0.5529411764705883,1]}},{"ty":"tr","o":{"a":0,"k":100},"a":{"a":0,"k":[0,0]},"s":{"a":0,"k":[100,100]},"p":{"a":0,"k":[0,0]},"r":{"a":0,"k":0}}]},{"ty":"gr","nm":"Flying coin04 shape group","it":[{"ty":"sh","ks":{"a":0,"k":{"c":true,"v":[[9.344,3.267],[12.727,1.5699999999999998],[10.586,3.0279999999999996],[7.204000000000001,4.725]],"i":[[-0.6419999999999995,0.4370000000000003],[-1.2100000000000009,0.41900000000000004],[0.7129999999999992,-0.48599999999999977],[1.0389999999999997,-0.7080000000000002]],"o":[[1.0389999999999997,-0.7079999999999997],[-0.7140000000000004,0.4860000000000002],[-1.209999999999999,0.41900000000000004],[0.6419999999999995,-0.4379999999999997]]}}},{"ty":"st","o":{"a":0,"k":0},"w":{"a":0,"k":0},"c":{"a":0,"k":[0,0,0,0]},"lc":3,"lj":1,"ml":1},{"ty":"fl","o":{"a":0,"k":100},"r":1,"c":{"a":0,"k":[0.9294117647058824,0.8627450980392157,0.23137254901960785,1]}},{"ty":"tr","o":{"a":0,"k":100},"a":{"a":0,"k":[0,0]},"s":{"a":0,"k":[100,100]},"p":{"a":0,"k":[0,0]},"r":{"a":0,"k":0}}]},{"ty":"gr","nm":"Flying coin04 shape group","it":[{"ty":"sh","ks":{"a":0,"k":{"c":true,"v":[[21.548,16.409],[21.578,16.389],[19.436999999999998,17.846999999999998],[19.406999999999996,17.866999999999997]],"i":[[-0.6419999999999995,0.4380000000000024],[-0.010000000000001563,0.006999999999997897],[0.7140000000000022,-0.4859999999999971],[0.010000000000001563,-0.006999999999997897]],"o":[[0.010000000000001563,-0.0070000000000014495],[-0.7139999999999986,0.48600000000000065],[-0.010000000000001563,0.006000000000000227],[0.6430000000000042,-0.4369999999999976]]}}},{"ty":"st","o":{"a":0,"k":0},"w":{"a":0,"k":0},"c":{"a":0,"k":[0,0,0,0]},"lc":3,"lj":1,"ml":1},{"ty":"fl","o":{"a":0,"k":100},"r":1,"c":{"a":0,"k":[0.9294117647058824,0.8627450980392157,0.23137254901960785,1]}},{"ty":"tr","o":{"a":0,"k":100},"a":{"a":0,"k":[0,0]},"s":{"a":0,"k":[100,100]},"p":{"a":0,"k":[0,0]},"r":{"a":0,"k":0}}]},{"ty":"gr","nm":"Flying coin04 shape group","it":[{"ty":"sh","ks":{"a":0,"k":{"c":true,"v":[[17.906,17.134],[22.093,23.731],[19.951999999999998,25.189],[15.765999999999998,18.593],[17.262999999999998,15.33],[19.403999999999996,13.872]],"i":[[0.04400000000000048,-1.5280000000000005],[-1.995000000000001,-1.7230000000000025],[0.7140000000000022,-0.4859999999999971],[-0.08699999999999974,3.0120000000000005],[-0.9130000000000003,0.6210000000000004],[0,0]],"o":[[-0.08599999999999852,3.0120000000000005],[-0.7139999999999986,0.48600000000000065],[-1.9939999999999998,-1.722999999999999],[0.04400000000000048,-1.5279999999999987],[0,0],[-0.9139999999999979,0.620000000000001]]}}},{"ty":"st","o":{"a":0,"k":0},"w":{"a":0,"k":0},"c":{"a":0,"k":[0,0,0,0]},"lc":3,"lj":1,"ml":1},{"ty":"fl","o":{"a":0,"k":100},"r":1,"c":{"a":0,"k":[0.9294117647058824,0.8627450980392157,0.23137254901960785,1]}},{"ty":"tr","o":{"a":0,"k":100},"a":{"a":0,"k":[0,0]},"s":{"a":0,"k":[100,100]},"p":{"a":0,"k":[0,0]},"r":{"a":0,"k":0}}]},{"ty":"gr","nm":"Flying coin04 shape group","it":[{"ty":"sh","ks":{"a":0,"k":{"c":true,"v":[[9.171,5.093],[9.647,5.48],[11.317,8.192],[11.206,9.109],[10.798,9.144],[10.319,8.756],[8.656,6.046],[8.76,5.128]],"i":[[-0.14400000000000013,-0.043999999999999595],[-0.11800000000000033,-0.19500000000000028],[0,0],[0.2810000000000006,-0.15000000000000036],[0.1429999999999989,0.04400000000000048],[0.12299999999999933,0.19599999999999973],[0,0],[-0.27200000000000024,0.15200000000000014]],"o":[[0.18100000000000094,0.05600000000000005],[0,0],[0.21199999999999974,0.3490000000000002],[-0.12100000000000044,0.07099999999999973],[-0.17999999999999972,-0.054999999999999716],[0,0],[-0.21799999999999997,-0.351],[0.12100000000000044,-0.07099999999999973]]}}},{"ty":"st","o":{"a":0,"k":0},"w":{"a":0,"k":0},"c":{"a":0,"k":[0,0,0,0]},"lc":3,"lj":1,"ml":1},{"ty":"fl","o":{"a":0,"k":100},"r":1,"c":{"a":0,"k":[0.9254901960784314,0.8666666666666667,0.2901960784313726,1]}},{"ty":"tr","o":{"a":0,"k":100},"a":{"a":0,"k":[0,0]},"s":{"a":0,"k":[100,100]},"p":{"a":0,"k":[0,0]},"r":{"a":0,"k":0}}]},{"ty":"gr","nm":"Flying coin04 shape group","it":[{"ty":"sh","ks":{"a":0,"k":{"c":true,"v":[[9.171,5.093],[11.312,3.635],[11.788,4.022],[9.647,5.48]],"i":[[0.18100000000000094,0.05600000000000005],[0,0],[-0.11800000000000033,-0.19500000000000028],[0,0]],"o":[[0,0],[0.18099999999999916,0.05500000000000016],[0,0],[-0.11800000000000033,-0.19500000000000028]]}}},{"ty":"st","o":{"a":0,"k":0},"w":{"a":0,"k":0},"c":{"a":0,"k":[0,0,0,0]},"lc":3,"lj":1,"ml":1},{"ty":"fl","o":{"a":0,"k":100},"r":1,"c":{"a":0,"k":[0.9254901960784314,0.8666666666666667,0.2901960784313726,1]}},{"ty":"tr","o":{"a":0,"k":100},"a":{"a":0,"k":[0,0]},"s":{"a":0,"k":[100,100]},"p":{"a":0,"k":[0,0]},"r":{"a":0,"k":0}}]},{"ty":"gr","nm":"Flying coin04 shape group","it":[{"ty":"sh","ks":{"a":0,"k":{"c":true,"v":[[9.647,5.48],[11.788,4.022],[13.458,6.734],[11.318,8.192]],"i":[[0,0],[0,0],[0,0],[0,0]],"o":[[0,0],[0,0],[0,0],[0,0]]}}},{"ty":"st","o":{"a":0,"k":0},"w":{"a":0,"k":0},"c":{"a":0,"k":[0,0,0,0]},"lc":3,"lj":1,"ml":1},{"ty":"fl","o":{"a":0,"k":100},"r":1,"c":{"a":0,"k":[0.9254901960784314,0.8666666666666667,0.2901960784313726,1]}},{"ty":"tr","o":{"a":0,"k":100},"a":{"a":0,"k":[0,0]},"s":{"a":0,"k":[100,100]},"p":{"a":0,"k":[0,0]},"r":{"a":0,"k":0}}]},{"ty":"gr","nm":"Flying coin04 shape group","it":[{"ty":"sh","ks":{"a":0,"k":{"c":true,"v":[[13.387,7.627],[11.246,9.084999999999999],[11.317,8.191999999999998],[13.458,6.733999999999998]],"i":[[0.24399999999999977,-0.16699999999999982],[0,0],[0.20199999999999996,0.33200000000000074],[0,0]],"o":[[0,0],[0.24499999999999922,-0.16699999999999982],[0,0],[0.20199999999999996,0.3320000000000016]]}}},{"ty":"st","o":{"a":0,"k":0},"w":{"a":0,"k":0},"c":{"a":0,"k":[0,0,0,0]},"lc":3,"lj":1,"ml":1},{"ty":"fl","o":{"a":0,"k":100},"r":1,"c":{"a":0,"k":[0.9254901960784314,0.8666666666666667,0.2901960784313726,1]}},{"ty":"tr","o":{"a":0,"k":100},"a":{"a":0,"k":[0,0]},"s":{"a":0,"k":[100,100]},"p":{"a":0,"k":[0,0]},"r":{"a":0,"k":0}}]},{"ty":"gr","nm":"Flying coin04 shape group","it":[{"ty":"sh","ks":{"a":0,"k":{"c":true,"v":[[8.76,5.128],[10.901,3.67],[11.311,3.635],[9.171,5.093]],"i":[[0.12100000000000044,-0.07099999999999973],[0,0],[-0.14300000000000068,-0.042999999999999705],[0,0]],"o":[[0,0],[0.12100000000000044,-0.07100000000000017],[0,0],[-0.14400000000000013,-0.043999999999999595]]}}},{"ty":"st","o":{"a":0,"k":0},"w":{"a":0,"k":0},"c":{"a":0,"k":[0,0,0,0]},"lc":3,"lj":1,"ml":1},{"ty":"fl","o":{"a":0,"k":100},"r":1,"c":{"a":0,"k":[0.9254901960784314,0.8666666666666667,0.2901960784313726,1]}},{"ty":"tr","o":{"a":0,"k":100},"a":{"a":0,"k":[0,0]},"s":{"a":0,"k":[100,100]},"p":{"a":0,"k":[0,0]},"r":{"a":0,"k":0}}]},{"ty":"gr","nm":"Flying coin04 shape group","it":[{"ty":"sh","ks":{"a":0,"k":{"c":true,"v":[[8.728,5.148],[10.869,3.6899999999999995],[10.901,3.6699999999999995],[8.76,5.128]],"i":[[0.009999999999999787,-0.006999999999999673],[0,0],[-0.010999999999999233,0.006000000000000227],[0,0]],"o":[[0,0],[0.009999999999999787,-0.007000000000000117],[0,0],